   0.20395,  -0.22894,   0.66492,   0.81445,  -0.40710,  -0.46611,   0.93750,   0.67050,   0.93635,  -0.92793
  -0.81936,  -0.37300,   0.53755,  -0.23637,   0.72102,  -0.43900,   0.39699,  -0.81117,   0.93750,  -0.64976
   0.68104,   0.33477,   0.24173,  -0.39167,  -0.55715,  -0.68115,   0.87176,   0.65385,   0.19126,  -0.10116
  -0.11405,  -0.11927,   0.81784,  -0.93750,  -0.93750,   0.93750,   0.60329,   0.51379,   0.22420,  -0.29186
   0.52328,   0.50394,  -0.52272,  -0.49023,   0.69210,  -0.56643,   0.68510,   0.68640,   0.55949,  -0.15862
  -0.43808,  -0.16155,   0.90507,   0.02957,   0.93750,   0.93750,  -0.93750,  -0.51689,  -0.61008,   0.47677
   0.12931,   0.48694,  -0.61724,   0.27460,   0.07948,  -0.83499,  -0.31892,   0.92141,   0.32386,  -0.87884
   0.71131,  -0.26389,   0.93750,  -0.85937,   0.88991,   0.93750,  -0.18503,  -0.60058,  -0.11259,  -0.44712
  -0.57575,  -0.35930,   0.69986,  -0.80569,   0.87392,  -0.71922,  -0.36266,  -0.41599,  -0.42646,   0.64457
  -0.40329,   0.93750,  -0.85607,   0.36446,   0.93750,  -0.69267,  -0.20653,  -0.74966,  -0.87962,  -0.67991
  -0.62055,  -0.69952,   0.87740,   0.93750,  -0.57209,   0.93750,  -0.35348,  -0.61437,   0.03150,  -0.59864
  -0.07324,   0.21538,  -0.40068,   0.80536,   0.70793,  -0.22202,  -0.58337,  -0.48545,   0.19629,   0.06392
  -0.56062,   0.40700,  -0.93750,   0.27873,   0.93750,  -0.86562,   0.68690,   0.93750,  -0.19132,  -0.69634
   0.93750,   0.73971,  -0.81322,   0.71874,   0.59285,   0.26615,   0.09312,  -0.37807,   0.38385,  -0.37527
   0.93750,   0.62247,   0.64108,  -0.06800,   0.93750,   0.47070,  -0.50812,  -0.90441,   0.87450,   0.87926
   0.08573,   0.16774,  -0.76463,  -0.80633,   0.93750,   0.85126,   0.93750,   0.93750,  -0.86370,  -0.07428
  -0.93750,  -0.19615,  -0.71786,   0.75490,  -0.93750,   0.87820,   0.74712,  -0.87848,   0.43548,  -0.30859
  -0.38974,   0.93750,  -0.54941,  -0.66094,  -0.93750,   0.35502,  -0.86720,  -0.85884,   0.23177,  -0.63057
  -0.01332,   0.93750,   0.09528,   0.66819,  -0.00453,  -0.91662,  -0.43471,  -0.08367,  -0.38106,   0.81459
   0.72386,   0.34895,  -0.53561,   0.04960,   0.76635,   0.45783,  -0.51500,   0.38778,  -0.61866,  -0.27399
  -0.31509,  -0.93750,   0.73415,  -0.77234,   0.93750,  -0.22279,   0.18786,  -0.93750,   0.48922,   0.80443
   0.07704,  -0.31245,  -0.55631,   0.93750,  -0.12342,  -0.61579,  -0.31391,   0.56638,   0.52668,  -0.17539
   0.60668,  -0.87722,   0.87488,  -0.49077,   0.93750,   0.89254,  -0.80329,  -0.51268,   0.93750,  -0.16527
  -0.55069,   0.93750,  -0.66730,  -0.01867,   0.04765,  -0.38132,   0.88170,   0.68345,   0.51156,  -0.68235
  -0.28535,   0.30912,   0.63266,  -0.57155,   0.87760,   0.93750,  -0.46768,  -0.93750,   0.52202,  -0.55011
  -0.58163,   0.12438,  -0.67930,   0.85407,   0.09848,  -0.69784,  -0.41792,  -0.46125,  -0.10143,   0.33815
   0.11850,  -0.43052,  -0.75565,  -0.26750,   0.86567,  -0.84928,  -0.53217,   0.93750,   0.48633,  -0.37626
  -0.87617,  -0.93050,  -0.62971,  -0.45828,   0.19343,   0.84122,  -0.49165,  -0.00262,  -0.38137,   0.93750
  -0.67250,  -0.31619,  -0.68755,   0.22147,  -0.77474,   0.05289,  -0.55298,   0.93750,  -0.02795,   0.24539
  -0.80883,   0.93750,   0.03584,  -0.82090,  -0.12051,  -0.41565,  -0.18538,  -0.35871,  -0.32952,   0.93750
   0.93750,  -0.02294,  -0.45841,  -0.77550,  -0.34238,   0.34952,   0.48272,  -0.79674,   0.00958,   0.01827
   0.00301,   0.30797,   0.05525,  -0.04405,  -0.50939,   0.34842,   0.93750,  -0.59063,  -0.25135,  -0.28631
   0.88016,  -0.03898,   0.27174,  -0.00523,   0.32619,   0.60584,   0.50062,   0.00550,   0.11795,  -0.28033
   0.47394,  -0.09498,   0.16498,   0.07290,   0.49799,   0.52226,  -0.74450,  -0.29976,  -0.25298,  -0.09603
   0.19818,  -0.17105,  -0.01405,  -0.21880,   0.87049,   0.13599,   0.93750,   0.93750,   0.93750,  -0.06747
  -0.65036,   0.29535,  -0.81372,   0.05343,   0.13949,   0.93750,   0.93750,  -0.93750,  -0.21943,   0.93750
   0.62186,   0.82072,   0.87831,  -0.81155,  -0.50871,  -0.08061,   0.29621,  -0.23717,   0.02012,   0.93750
   0.18598,   0.93750,  -0.66450,  -0.93750,  -0.86400,  -0.25085,   0.70375,   0.63761,   0.86107,   0.77814
   0.12127,   0.68324,   0.93748,   0.32476,   0.38555,  -0.43245,  -0.88217,  -0.14110,  -0.05055,   0.81594
   0.76951,   0.39826,   0.93687,  -0.27738,   0.29281,  -0.93750,   0.26083,  -0.23388,   0.93750,  -0.19432
   0.42293,   0.06694,  -0.47992,  -0.49522,  -0.20699,   0.26217,   0.79426,   0.86683,   0.02959,  -0.31570
   0.01361,  -0.24218,   0.55778,  -0.15433,   0.87872,  -0.36773,  -0.10364,  -0.65952,   0.03467,   0.75714
   0.39269,  -0.41990,  -0.81810,   0.34953,   0.71828,   0.05955,   0.73851,   0.08278,  -0.43161,   0.93750
   0.93750,   0.82951,   0.67799,   0.27623,   0.93750,  -0.93750,   0.93750,   0.93750,   0.27578,   0.93750
  -0.18755,   0.01029,  -0.68223,  -0.57880,   0.53571,   0.76662,  -0.61969,   0.93750,   0.69278,  -0.34521
  -0.86494,  -0.52932,   0.93434,  -0.69836,   0.88423,  -0.76115,  -0.29539,   0.06250,   0.01545,   0.45514
   0.66642,   0.87365,  -0.81391,  -0.93750,   0.87516,   0.93750,   0.03773,  -0.80344,   0.10000,   0.93316
   0.93750,   0.70500,   0.93192,   0.75358,   0.90646,   0.73215,   0.67908,   0.87037,  -0.93210,   0.40087
   0.22344,   0.73440,  -0.78339,  -0.93750,   0.93750,  -0.52145,   0.75079,   0.93750,  -0.82560,  -0.02515
  -0.09905,   0.56270,  -0.48605,  -0.20153,  -0.23808,  -0.16843,  -0.03858,  -0.11852,   0.52526,  -0.10910
   0.54975,   0.19092,  -0.67894,  -0.39044,   0.93750,  -0.80064,  -0.66922,  -0.93750,   0.33617,   0.07430
   0.06658,   0.56793,  -0.75641,  -0.05327,  -0.22724,  -0.72018,  -0.17488,   0.85703,  -0.10711,   0.82907
   0.63143,   0.87411,  -0.67698,   0.01446,  -0.62116,   0.84723,   0.58649,   0.06462,  -0.08208,   0.80225
  -0.64220,   0.82947,  -0.93750,   0.35427,  -0.05597,  -0.44827,  -0.10171,  -0.80006,  -0.04647,  -0.47534
  -0.13690,   0.29273,  -0.52337,   0.73338,   0.93750,  -0.92734,  -0.23675,   0.07675,   0.49902,   0.23480
   0.03445,   0.93750,  -0.00579,  -0.68274,   0.86655,   0.93750,  -0.73974,   0.93750,   0.08433,  -0.08589
  -0.83414,   0.08367,  -0.93750,  -0.28745,   0.67655,   0.06840,  -0.61593,  -0.74748,   0.93750,  -0.06082
  -0.23285,  -0.80312,  -0.93302,  -0.55769,   0.28166,  -0.74901,   0.93750,  -0.68431,   0.93750,  -0.93750
  -0.93750,  -0.05943,   0.03429,  -0.70309,  -0.93750,  -0.43527,  -0.93750,  -0.88148,   0.33034,  -0.93750
  -0.50383,  -0.89023,  -0.93750,  -0.93750,  -0.84723,   0.93750,  -0.78839,  -0.81735,  -0.90707,   0.09078
  -0.46984,   0.37766,   0.86116,   0.93750,   0.40149,   0.93750,   0.73677,   0.86498,  -0.75241,  -0.14161
  -0.48595,   0.28608,  -0.88007,   0.86633,   0.85424,  -0.48369,   0.74924,  -0.23061,   0.19153,  -0.39869
  -0.62620,  -0.11603,  -0.53745,  -0.66498,   0.93750,   0.05583,  -0.73593,   0.93578,  -0.67288,  -0.93750
   0.93750,  -0.27130,   0.86814,  -0.64527,   0.80717,   0.20166,   0.56015,  -0.81518,   0.05102,  -0.93750
   0.42096,   0.07214,   0.87947,  -0.75400,   0.93750,   0.01597,  -0.93750,  -0.66233,   0.04085,  -0.15765
  -0.43778,  -0.37520,  -0.34336,  -0.25881,   0.18654,   0.86064,  -0.67248,   0.48307,   0.74600,   0.08798
   0.15699,   0.34770,   0.21343,  -0.93750,  -0.45574,   0.93750,   0.08750,   0.93750,   0.44564,   0.50888
   0.72375,   0.26289,   0.93750,  -0.87065,  -0.27651,   0.68818,   0.54756,  -0.80929,   0.72143,   0.21344
  -0.10308,   0.93750,  -0.68943,  -0.47127,   0.09431,  -0.87559,   0.08616,   0.89797,  -0.93750,   0.16451
  -0.15616,   0.24089,   0.93121,  -0.01594,  -0.22440,  -0.42112,  -0.08417,  -0.43034,   0.36971,   0.09825
   0.93750,   0.86314,  -0.74577,  -0.34075,  -0.66453,   0.28923,  -0.17747,  -0.93750,  -0.86903,  -0.18002
  -0.38747,  -0.36860,   0.93750,  -0.88241,   0.60388,  -0.44368,  -0.41906,  -0.00639,  -0.39623,  -0.79814
   0.22626,  -0.93750,  -0.50594,  -0.30342,  -0.93750,  -0.83542,   0.33777,  -0.41369,  -0.93189,   0.93750
  -0.93750,  -0.86478,  -0.93750,   0.93750,  -0.87473,   0.56355,  -0.87614,   0.80698,   0.55334,  -0.93750
  -0.02670,   0.00002,   0.49057,   0.26675,   0.12069,  -0.00520,   0.25465,  -0.57242,   0.07275,   0.21783
  -0.17316,   0.50664,   0.02729,  -0.71020,  -0.37670,  -0.68736,   0.53458,   0.92603,   0.24047,  -0.37572
  -0.87698,   0.87411,  -0.64017,  -0.78511,  -0.87101,  -0.87680,   0.82107,   0.60716,   0.25191,   0.14610
  -0.77038,   0.67680,   0.78826,  -0.76509,   0.93328,   0.93750,  -0.33445,   0.67511,   0.02740,  -0.70171
  -0.57303,  -0.65812,   0.40640,   0.93750,  -0.30709,  -0.62184,   0.50674,   0.72910,  -0.14964,   0.40940
   0.73881,  -0.54626,  -0.53772,  -0.75725,  -0.87487,   0.93750,  -0.76725,   0.65345,   0.73966,   0.86716
   0.93750,  -0.93750,  -0.86502,  -0.20572,   0.48914,  -0.30621,   0.36790,  -0.63800,   0.92863,  -0.59865
   0.23324,  -0.30355,  -0.83931,   0.93750,   0.03039,  -0.93750,  -0.15632,  -0.36124,  -0.69721,   0.19143
  -0.04707,  -0.28379,  -0.62286,  -0.51136,  -0.35411,   0.68112,   0.32798,  -0.53605,  -0.41920,   0.28985
  -0.41330,  -0.44605,   0.56916,  -0.68991,   0.92964,   0.12989,  -0.42279,  -0.40130,   0.53660,   0.14218
  -0.39263,   0.12455,  -0.87575,   0.93750,   0.93262,  -0.56941,   0.86860,  -0.71005,   0.23505,   0.42305
   0.53615,  -0.88254,  -0.83680,   0.93750,   0.80422,   0.93750,  -0.75673,   0.68785,  -0.87733,  -0.93750
   0.21515,   0.75182,  -0.31661,  -0.64905,   0.21905,  -0.75200,   0.37532,  -0.36690,  -0.49425,  -0.38117
   0.18140,   0.09475,   0.26071,  -0.86828,   0.26346,   0.93750,   0.04683,  -0.12707,  -0.10474,   0.16411
   0.42054,   0.60474,  -0.87845,   0.88629,  -0.33543,  -0.87551,  -0.63275,   0.93750,   0.93750,  -0.82456
   0.50399,   0.23816,  -0.93750,   0.54047,   0.92889,  -0.51485,   0.53495,   0.11163,   0.18259,   0.04220
  -0.89245,   0.93750,   0.93750,  -0.58866,   0.63016,  -0.87831,  -0.02644,   0.74756,  -0.38451,  -0.50170
   0.93750,   0.30500,   0.38326,   0.65704,  -0.93750,  -0.81619,   0.93750,   0.69355,   0.93750,  -0.25508
  -0.19291,  -0.01142,  -0.02245,  -0.39431,  -0.06046,  -0.31959,   0.49454,   0.74478,  -0.04673,   0.33412
  -0.39505,  -0.21520,  -0.53691,   0.93750,  -0.34093,  -0.47946,   0.30704,   0.27455,   0.88177,  -0.62708
  -0.22325,   0.37873,  -0.26573,   0.86609,   0.49614,  -0.45967,  -0.02155,   0.07867,   0.03324,   0.14853
   0.70524,   0.24221,  -0.28396,   0.18778,   0.87343,  -0.32978,  -0.02218,  -0.24958,  -0.77600,  -0.00666
  -0.81125,   0.20054,   0.80321,   0.22239,  -0.87689,   0.79572,  -0.53729,  -0.86231,  -0.93750,   0.37430
  -0.35949,  -0.62797,   0.54349,   0.74582,   0.80997,   0.02071,  -0.01314,  -0.30111,   0.23992,   0.69926
   0.58187,   0.42915,   0.45486,   0.11548,   0.46679,  -0.32466,   0.75154,  -0.68493,  -0.20718,  -0.68600
  -0.66156,   0.23153,   0.26468,   0.62495,  -0.16908,   0.20868,  -0.05167,  -0.14356,   0.79003,   0.49120
  -0.60086,   0.03975,   0.25594,  -0.14004,   0.45956,  -0.68042,  -0.67847,   0.03188,  -0.83108,  -0.65741
  -0.74150,   0.05306,   0.81258,   0.56093,  -0.49766,  -0.15684,   0.26583,   0.22378,  -0.41575,   0.10399
  -0.93469,   0.30010,   0.93750,  -0.35787,  -0.86291,   0.05871,   0.28453,   0.35032,   0.07677,   0.30316
  -0.41330,   0.82934,   0.62238,  -0.70523,  -0.88305,   0.04061,  -0.11567,   0.12923,  -0.69806,  -0.30059
   0.80887,   0.16911,  -0.02981,  -0.00546,   0.81527,  -0.64030,  -0.65733,  -0.42316,   0.70876,  -0.60772
  -0.02030,   0.93750,  -0.31398,  -0.14309,   0.28437,  -0.21800,  -0.71698,  -0.77902,  -0.78152,  -0.93691
   0.01158,  -0.33684,   0.20466,   0.33729,   0.88190,  -0.93750,   0.50165,  -0.88065,  -0.93750,   0.37165
   0.07872,   0.56545,   0.36593,  -0.73088,   0.14886,   0.60656,  -0.19376,   0.87498,   0.20041,   0.14318
   0.93750,  -0.93750,   0.69751,  -0.40772,   0.87688,   0.13633,  -0.14322,   0.15649,  -0.93750,   0.21851
   0.92966,  -0.17764,  -0.36633,   0.93750,   0.81263,  -0.00892,  -0.71795,  -0.36179,   0.81322,  -0.75054
   0.29929,  -0.69742,  -0.45522,  -0.29042,   0.44563,   0.16710,   0.74083,   0.87866,  -0.54395,   0.93750
  -0.68533,  -0.24490,  -0.76479,   0.93750,  -0.72321,  -0.93750,  -0.17891,   0.21426,   0.90107,  -0.15509
  -0.79851,   0.81634,  -0.62182,   0.18088,   0.86140,  -0.93750,   0.33821,   0.75441,   0.43019,  -0.42515
   0.93750,  -0.62264,   0.93750,  -0.47597,  -0.04760,  -0.86384,   0.23982,   0.31733,   0.00026,  -0.13998
   0.93750,  -0.09996,  -0.71193,  -0.79829,   0.06846,  -0.67821,  -0.88576,  -0.05653,   0.93750,   0.93261
  -0.92887,  -0.20079,   0.38349,  -0.64026,   0.93750,   0.44545,  -0.27851,  -0.66105,   0.44531,   0.12826
   0.85215,   0.93750,   0.44836,   0.27520,   0.58805,  -0.37489,   0.33985,  -0.79125,  -0.28963,  -0.93750
  -0.88131,   0.04556,  -0.93084,   0.93120,   0.93750,   0.87251,  -0.93750,   0.81761,  -0.78313,  -0.80653
   0.12448,   0.33789,  -0.69688,   0.93750,   0.54028,  -0.69827,  -0.67079,   0.86377,  -0.22641,  -0.00463
   0.33837,   0.22682,   0.93750,  -0.77908,  -0.03748,   0.45991,   0.12759,  -0.77547,  -0.84917,   0.64191
   0.25463,   0.40304,  -0.49590,   0.44932,   0.26963,  -0.41240,   0.04177,   0.93750,   0.22750,  -0.16644
   0.15407,  -0.00855,   0.80499,  -0.34823,   0.72318,  -0.25336,  -0.13335,  -0.21793,   0.10972,  -0.18821
   0.93750,   0.88827,  -0.78772,  -0.81291,  -0.85550,  -0.48975,  -0.55354,   0.46982,   0.93750,   0.81608
  -0.76282,  -0.08966,   0.39904,  -0.90466,  -0.80291,  -0.50035,  -0.55851,  -0.05210,  -0.42337,   0.75325
  -0.63244,  -0.75113,   0.73965,   0.09360,  -0.16276,   0.16165,   0.13490,   0.86924,  -0.81743,   0.93750
  -0.34151,  -0.45493,   0.61829,   0.93750,  -0.81341,  -0.80951,  -0.48624,   0.76475,  -0.22035,   0.67210
   0.65182,   0.93750,  -0.22974,  -0.30422,  -0.36109,   0.39756,   0.24076,   0.36939,  -0.55178,  -0.86835
   0.24735,   0.18973,  -0.34358,   0.86580,  -0.33863,  -0.59012,  -0.07199,  -0.51985,  -0.49475,   0.30953
   0.89743,  -0.93750,  -0.38324,  -0.14444,   0.59857,   0.81633,   0.43362,   0.50156,   0.36766,  -0.45881
   0.93750,   0.30059,  -0.00814,   0.93750,   0.87598,  -0.66944,   0.75977,  -0.93750,  -0.49763,   0.80472
   0.10154,   0.30866,   0.25459,   0.93041,  -0.74269,  -0.36871,  -0.16856,  -0.73779,  -0.53065,   0.23751
   0.15980,  -0.02951,  -0.68455,  -0.73551,  -0.57099,   0.46660,   0.93750,   0.54770,   0.93750,   0.44598
  -0.24057,   0.13808,   0.81767,  -0.54123,  -0.87980,   0.90186,  -0.80566,  -0.93750,   0.54590,  -0.35983
   0.88059,   0.05422,  -0.93750,  -0.93750,   0.60203,  -0.93750,  -0.83781,   0.34391,   0.67328,   0.36661
   0.73147,   0.22560,   0.14499,  -0.68766,   0.37532,   0.78965,   0.00163,  -0.33126,  -0.22544,   0.03389
   0.61920,   0.14741,  -0.70414,  -0.73174,   0.55403,   0.05946,   0.52128,   0.77513,   0.38412,  -0.38147
  -0.03510,   0.32626,  -0.62513,   0.24809,  -0.82088,   0.82754,   0.12198,  -0.47229,  -0.04968,  -0.19361
  -0.06813,   0.71309,  -0.86460,   0.84147,  -0.63430,   0.69421,  -0.81400,  -0.22465,   0.31909,  -0.93750
   0.12893,   0.30185,  -0.87224,   0.01387,  -0.59270,  -0.57326,   0.66987,  -0.44027,   0.93750,  -0.93750
  -0.71527,   0.05032,   0.14348,  -0.21745,  -0.66581,  -0.85849,  -0.16447,   0.93750,  -0.07747,  -0.33780
  -0.69413,  -0.82523,  -0.79099,  -0.30641,  -0.93750,  -0.68464,   0.06943,   0.93750,  -0.64034,  -0.22098
   0.81152,   0.87331,   0.39709,   0.52356,   0.33027,   0.34347,  -0.53137,  -0.79132,  -0.55969,  -0.49476
   0.22819,  -0.05075,   0.71381,   0.69694,  -0.56170,  -0.26986,  -0.25735,  -0.11405,   0.17601,  -0.51084
  -0.07585,   0.36037,  -0.09252,   0.11630,   0.11199,   0.89880,   0.71157,   0.61802,   0.11133,   0.50955
   0.87815,  -0.68197,   0.34375,   0.87012,  -0.81361,  -0.81177,   0.36109,  -0.93750,   0.41158,   0.61617
   0.80255,  -0.04981,   0.93750,  -0.38552,   0.86428,  -0.68740,  -0.48680,  -0.09808,  -0.18317,  -0.01852
  -0.53183,   0.21837,   0.87642,  -0.00637,   0.87007,  -0.76456,  -0.37793,   0.77622,   0.20611,   0.93750
  -0.16370,  -0.20876,  -0.78673,  -0.68212,   0.93750,  -0.76002,  -0.40050,  -0.80457,   0.80073,   0.45628
   0.67939,  -0.22703,  -0.46395,   0.87474,  -0.80697,  -0.17329,   0.93750,  -0.14500,  -0.82385,  -0.71125
   0.60611,  -0.33393,   0.19609,  -0.47774,  -0.61795,   0.86989,   0.61814,  -0.60247,   0.24980,   0.67320
  -0.34664,  -0.17855,  -0.03098,   0.22080,  -0.83583,  -0.58131,   0.21706,   0.93750,   0.61341,   0.39509
  -0.48766,   0.93750,  -0.61886,  -0.05421,  -0.64607,  -0.00826,  -0.52141,   0.37749,  -0.59483,  -0.93405
  -0.69569,  -0.33751,  -0.77813,  -0.34404,   0.11410,   0.51970,  -0.81495,   0.45791,   0.34152,   0.42391
  -0.69432,   0.87288,  -0.93750,   0.93750,   0.93750,   0.87784,  -0.70922,   0.16277,  -0.31219,   0.93750
   0.33472,  -0.18722,  -0.21503,   0.55538,   0.53989,  -0.68233,   0.61469,   0.17103,   0.37391,  -0.23588
  -0.02637,   0.74843,   0.42382,   0.93750,   0.19587,   0.53974,   0.75534,  -0.93750,  -0.60711,   0.93750
   0.92706,   0.01105,  -0.55827,  -0.73512,   0.93750,  -0.87755,  -0.16310,  -0.84691,  -0.01634,  -0.16940
   0.33472,  -0.15612,  -0.46391,   0.81285,   0.02955,  -0.60349,  -0.10875,   0.11832,  -0.54068,   0.00631
   0.51695,   0.93750,   0.93750,  -0.81009,   0.30580,   0.48332,  -0.93750,   0.43712,  -0.74883,  -0.43382
   0.15682,   0.42474,  -0.13672,  -0.28864,   0.76350,  -0.51726,  -0.36911,   0.29023,   0.54579,   0.13490
   0.87196,  -0.74162,  -0.62388,  -0.48778,   0.02112,   0.30397,  -0.45048,  -0.17703,  -0.39213,  -0.60992
  -0.11421,  -0.71317,   0.93034,  -0.80978,  -0.81010,  -0.86878,   0.93750,  -0.63874,  -0.30300,  -0.19324
   0.63236,  -0.49907,   0.81740,  -0.28541,   0.93750,   0.71671,  -0.63386,  -0.15224,  -0.93750,  -0.69292
   0.60791,   0.38807,   0.03094,  -0.35554,   0.85955,  -0.63211,  -0.02802,  -0.32695,   0.11528,   0.02185
  -0.58700,  -0.43773,  -0.73441,   0.93458,   0.31781,  -0.82238,   0.81543,   0.49553,  -0.67781,  -0.73819
   0.93750,   0.87182,   0.58366,   0.62806,   0.26334,   0.93750,  -0.82216,   0.84575,  -0.93750,  -0.10335
   0.42721,   0.89639,  -0.63053,  -0.21399,  -0.67536,   0.35348,   0.16304,  -0.84607,   0.26903,   0.32730
   0.93167,   0.27791,  -0.32634,  -0.39383,   0.81393,  -0.60164,   0.33490,   0.22118,   0.51297,   0.21879
  -0.61931,   0.28806,   0.93750,  -0.38791,  -0.34471,   0.00024,  -0.30799,   0.30806,   0.64801,   0.01513
  -0.87463,   0.85585,   0.44414,  -0.66073,   0.27224,   0.50854,  -0.93555,   0.93750,   0.71056,  -0.55659
   0.93750,  -0.20151,  -0.89736,  -0.19051,   0.93464,  -0.39979,  -0.21412,  -0.68503,  -0.63394,  -0.67698
   0.50639,   0.28199,   0.02740,   0.03670,   0.25068,  -0.40631,  -0.02131,   0.51305,   0.39131,  -0.84546
  -0.85316,  -0.12652,   0.12483,  -0.86936,  -0.76809,   0.40436,   0.58666,   0.93750,   0.00912,  -0.76517
   0.28673,  -0.28123,  -0.52312,   0.93750,  -0.51846,  -0.78576,   0.54583,   0.26562,  -0.01116,  -0.15369
  -0.69108,  -0.15351,  -0.47999,   0.93750,  -0.93750,  -0.62339,   0.79137,   0.16359,   0.86802,   0.59153
   0.05311,   0.41596,   0.67857,   0.74092,  -0.75799,  -0.65950,  -0.43618,   0.69910,  -0.27737,   0.08366
  -0.81107,   0.73403,  -0.62365,  -0.31302,  -0.63038,   0.75161,   0.62686,  -0.44243,   0.93750,   0.33632
  -0.03405,   0.21123,   0.79816,  -0.42503,   0.82576,  -0.40786,  -0.48164,  -0.34577,  -0.19364,   0.18397
  -0.53032,   0.46190,   0.17324,  -0.24854,   0.31980,  -0.93750,  -0.15186,   0.93750,   0.45664,  -0.12610
  -0.33071,   0.17032,   0.11044,  -0.28739,   0.93750,   0.01750,  -0.57183,   0.45951,  -0.14359,   0.59688
  -0.93750,  -0.62635,   0.93750,   0.23307,  -0.07018,  -0.57180,  -0.35710,   0.49259,   0.04680,   0.17025
   0.93750,  -0.62331,   0.93750,   0.93750,   0.93750,   0.70993,   0.62375,  -0.61733,  -0.88215,  -0.33281
  -0.11028,  -0.68115,  -0.87107,   0.65725,  -0.50542,  -0.49944,   0.15608,  -0.40007,  -0.85003,  -0.59471
  -0.22109,   0.32307,   0.41299,  -0.13015,   0.67035,  -0.38638,  -0.03973,   0.61211,  -0.10927,   0.32536
  -0.72151,   0.74545,   0.33743,   0.65287,  -0.13881,   0.41527,   0.06013,   0.44300,   0.93727,   0.08079
   0.31243,   0.22134,   0.67848,  -0.93225,   0.64162,  -0.93750,   0.93750,   0.90773,   0.26910,   0.18409
  -0.69596,  -0.55033,  -0.18073,  -0.77511,  -0.47870,   0.93750,  -0.66990,   0.00298,   0.29612,  -0.52869
  -0.81567,  -0.93750,  -0.22938,   0.57518,  -0.79524,  -0.49129,   0.74956,  -0.63751,   0.93750,   0.93750
  -0.74577,   0.51826,   0.93750,   0.28917,  -0.02801,  -0.02512,   0.67502,   0.01179,   0.40738,   0.32461
  -0.33254,  -0.93717,   0.41800,  -0.39340,  -0.57787,   0.48058,  -0.08934,  -0.05320,  -0.33447,  -0.87525
   0.24993,   0.27257,  -0.10631,   0.93713,   0.40530,  -0.93750,  -0.04608,  -0.20442,  -0.24339,   0.19997
  -0.11430,   0.33028,  -0.44082,   0.93035,   0.08777,  -0.40148,  -0.09110,  -0.57644,   0.29360,  -0.08498
  -0.11783,   0.20744,  -0.15215,  -0.86353,   0.61775,   0.93515,  -0.30838,   0.93750,  -0.33341,  -0.32649
   0.69682,   0.35198,   0.19814,  -0.18105,   0.69575,   0.14231,  -0.40350,  -0.04864,   0.22627,  -0.00565
   0.37331,  -0.09394,  -0.07395,  -0.44411,  -0.48629,   0.80730,  -0.25624,  -0.39151,   0.33718,  -0.15977
   0.23070,   0.93750,   0.41477,   0.12997,  -0.33686,   0.15462,   0.67710,   0.07623,   0.17234,  -0.50355
  -0.54915,  -0.93750,   0.86020,   0.87935,   0.74442,  -0.33139,  -0.48054,  -0.69025,  -0.88699,  -0.68368
  -0.17812,  -0.46653,  -0.31262,   0.93750,   0.14434,  -0.47249,  -0.31156,  -0.37779,   0.06732,   0.93750
   0.03500,   0.24973,  -0.23979,   0.41640,   0.75437,   0.66158,   0.06930,  -0.08859,  -0.55289,  -0.60437
   0.74366,   0.11210,   0.73726,   0.87021,   0.23499,   0.88263,   0.90327,  -0.47968,   0.93750,   0.87340
  -0.52873,  -0.28590,   0.62940,  -0.32977,  -0.07438,   0.87218,  -0.01344,  -0.52647,   0.04681,   0.32625
  -0.20279,  -0.08479,   0.59816,  -0.80872,  -0.16183,   0.16920,   0.93750,  -0.10217,  -0.40221,   0.39903
   0.08559,  -0.46345,   0.09701,  -0.86538,   0.93750,   0.82032,  -0.87813,  -0.40385,  -0.32348,  -0.42518
  -0.21632,   0.93750,   0.12955,  -0.81718,  -0.21933,  -0.50096,  -0.03000,   0.52063,  -0.82690,  -0.92733
   0.55920,  -0.07223,   0.93750,   0.85461,  -0.35347,   0.50876,   0.41459,  -0.80599,  -0.07692,   0.30236
  -0.57431,   0.27149,   0.93750,  -0.81740,   0.31232,  -0.72483,   0.55381,  -0.15386,  -0.37189,   0.40831
   0.14482,   0.69852,   0.50820,  -0.75246,   0.81162,  -0.68561,   0.27988,   0.93750,  -0.33347,  -0.89015
  -0.31586,  -0.87545,   0.93750,  -0.76347,  -0.93571,  -0.67378,  -0.75011,  -0.86767,   0.88000,  -0.81755
  -0.73476,  -0.50726,  -0.69727,  -0.76136,   0.07792,  -0.24104,   0.93750,   0.04792,  -0.09415,  -0.23967
  -0.15317,   0.06281,  -0.57211,   0.86358,   0.43069,  -0.54559,   0.09605,  -0.04895,   0.16071,  -0.46995
  -0.35223,  -0.04302,  -0.82563,  -0.85349,  -0.62680,   0.93703,  -0.23413,   0.82385,  -0.73192,  -0.13899
  -0.87499,  -0.87855,   0.79334,  -0.44980,   0.34967,   0.43867,  -0.15417,  -0.66874,   0.13964,   0.93750
  -0.22698,  -0.64582,   0.75542,   0.51756,  -0.01605,   0.22211,  -0.14299,  -0.04463,   0.91832,  -0.09215
   0.40518,   0.14680,   0.20239,   0.38469,   0.06518,   0.17787,  -0.83088,   0.44073,   0.30356,   0.34138
  -0.50447,  -0.19112,  -0.83273,   0.93750,  -0.91554,   0.81988,  -0.83660,   0.86792,  -0.33338,  -0.76272
  -0.39549,  -0.87208,   0.68002,  -0.05167,   0.93750,  -0.82342,   0.37959,  -0.88399,  -0.87967,   0.93750
  -0.48461,  -0.86136,  -0.88368,  -0.74768,   0.06114,  -0.14706,   0.36684,   0.46930,  -0.66359,  -0.04677
  -0.32218,  -0.03833,  -0.93415,  -0.93750,  -0.91474,  -0.56173,   0.93750,  -0.72563,  -0.19149,   0.63962
   0.58120,   0.68781,   0.33922,  -0.50582,   0.31362,  -0.67896,   0.02469,  -0.28164,  -0.30985,   0.62895
   0.01313,  -0.15823,   0.51789,  -0.74384,  -0.47628,   0.79082,   0.12767,  -0.49552,  -0.12793,   0.16287
   0.93750,   0.93750,   0.39930,  -0.87464,  -0.05592,  -0.77108,  -0.34398,   0.62528,   0.93750,  -0.70593
   0.93750,  -0.14746,  -0.05738,   0.93750,   0.93750,  -0.82821,   0.93750,   0.93750,   0.06504,   0.67349
  -0.92382,   0.02609,   0.50539,  -0.14608,  -0.56423,   0.70412,   0.03363,   0.11001,   0.56736,   0.16261
  -0.36549,   0.89399,  -0.63825,  -0.60708,   0.10826,   0.56335,   0.24148,  -0.10446,  -0.48719,   0.41625
  -0.78197,   0.75343,  -0.57261,  -0.08884,   0.93309,   0.06471,  -0.62571,  -0.25438,   0.08816,  -0.19039
   0.67942,  -0.12763,  -0.39737,  -0.68863,   0.15311,  -0.42115,  -0.70050,   0.91753,  -0.33921,  -0.38857
   0.41911,  -0.93750,   0.51277,   0.93750,   0.41195,  -0.93750,   0.93750,  -0.87852,  -0.81005,   0.83603
  -0.74901,   0.93750,  -0.88660,  -0.93750,  -0.73114,   0.86227,  -0.04386,   0.93750,  -0.38938,  -0.89132
  -0.04654,  -0.88092,  -0.77267,  -0.78856,  -0.93750,  -0.64625,   0.44435,  -0.08042,   0.11835,   0.81483
  -0.75874,   0.05495,   0.74578,  -0.04766,  -0.07108,   0.34393,   0.56155,  -0.21773,  -0.06954,   0.12676
   0.22957,   0.34221,  -0.61999,  -0.74979,   0.81124,   0.93750,  -0.29663,  -0.87476,   0.21584,   0.75993
  -0.28676,  -0.27612,  -0.93750,   0.93750,   0.86893,   0.29521,  -0.17206,  -0.59729,  -0.26124,  -0.07431
   0.91742,   0.14246,  -0.50109,   0.93218,  -0.26589,  -0.93217,   0.63331,   0.44473,   0.31526,   0.15222
   0.90677,   0.57709,   0.54659,  -0.18678,  -0.24661,   0.38752,   0.93750,  -0.93750,   0.05992,  -0.67539
  -0.93750,  -0.22095,   0.56739,   0.93750,   0.93750,  -0.06792,  -0.05155,   0.93750,  -0.78124,  -0.30585
   0.60408,   0.74577,   0.93750,   0.20030,   0.68864,   0.93750,   0.87508,  -0.58962,  -0.32942,  -0.93750
   0.08268,  -0.84293,  -0.93549,   0.83882,   0.93750,  -0.79843,   0.24055,  -0.86891,   0.77326,  -0.91413
   0.93750,  -0.24477,  -0.42813,  -0.77784,   0.20325,  -0.69190,  -0.31839,   0.07774,  -0.84707,  -0.33315
   0.41457,  -0.13332,  -0.76180,   0.16468,  -0.83184,   0.93750,   0.42639,  -0.22765,  -0.65314,   0.93750
   0.93750,   0.08197,  -0.19576,  -0.93750,   0.35223,   0.87206,   0.93516,  -0.55633,   0.93750,   0.52052
  -0.61153,  -0.01049,  -0.55314,   0.88698,  -0.66981,   0.81497,   0.57735,  -0.87046,   0.27456,  -0.65153
  -0.17615,   0.15858,  -0.37447,  -0.23797,   0.64484,   0.46324,  -0.48976,  -0.15054,   0.13730,   0.29719
  -0.44810,  -0.50205,   0.55026,  -0.24813,  -0.90591,   0.28615,   0.03753,   0.41358,   0.55629,   0.67964
   0.86667,   0.86569,  -0.87906,  -0.81841,   0.61143,  -0.10308,   0.41663,   0.27908,   0.49115,  -0.57576
  -0.35495,   0.23802,  -0.29371,  -0.27452,   0.28626,   0.71179,  -0.41984,  -0.76243,   0.02625,  -0.08107
   0.87359,  -0.49051,  -0.04149,   0.87067,   0.93750,  -0.63196,  -0.83938,   0.62071,  -0.20944,  -0.51130
   0.39613,  -0.27973,  -0.93090,   0.93624,   0.87892,  -0.78203,  -0.79869,  -0.93168,  -0.32456,   0.06741
  -0.55892,  -0.45421,  -0.86535,  -0.36991,  -0.60106,  -0.82455,   0.92811,  -0.24163,   0.93750,   0.76030
   0.24917,   0.73944,  -0.93750,   0.87859,   0.27625,  -0.85069,  -0.02008,   0.85057,  -0.62504,  -0.86883
   0.70966,  -0.02132,  -0.33638,   0.26950,   0.93750,  -0.33964,  -0.44562,  -0.17456,  -0.09987,  -0.16956
   0.37249,  -0.06850,  -0.81315,   0.93750,   0.44172,   0.69062,  -0.93750,   0.55040,  -0.21640,   0.01360
   0.43531,  -0.74874,   0.60807,  -0.48133,   0.26702,   0.47696,  -0.15455,  -0.74115,  -0.57149,   0.70359
   0.85923,  -0.93750,  -0.36776,  -0.31893,   0.34709,  -0.74040,   0.78768,  -0.93750,   0.93750,   0.93750
   0.69106,  -0.00913,   0.22997,  -0.66249,   0.93165,  -0.50588,  -0.31089,  -0.76666,  -0.26750,   0.11606
   0.25569,  -0.43619,  -0.73141,   0.93750,   0.93750,   0.10190,  -0.43103,  -0.09717,  -0.02845,  -0.79743
   0.07267,  -0.87309,  -0.68187,   0.34862,   0.91306,   0.93750,   0.88481,  -0.41582,  -0.88230,  -0.81033
  -0.12522,  -0.04007,  -0.91400,   0.61439,  -0.68096,  -0.43057,  -0.15569,   0.81139,  -0.82769,   0.13304
   0.93750,   0.89220,   0.86583,   0.20988,   0.93750,  -0.93750,  -0.52428,  -0.82654,  -0.47201,   0.40779
   0.93750,  -0.93750,  -0.93750,   0.93750,   0.93750,   0.93750,  -0.48510,   0.93750,   0.67975,   0.68061
   0.24162,   0.37728,   0.93750,  -0.33552,   0.55216,  -0.40198,  -0.80312,  -0.29435,   0.23654,  -0.06104
   0.49894,   0.38888,   0.79764,  -0.34438,  -0.58599,  -0.52013,  -0.63270,   0.93750,  -0.83568,   0.31903
  -0.50847,   0.14806,  -0.53967,  -0.27887,   0.93750,  -0.07159,   0.73488,   0.80461,  -0.18022,  -0.30323
   0.68847,  -0.86877,   0.93750,  -0.72455,  -0.82368,   0.81724,   0.00445,  -0.87014,  -0.60688,  -0.66187
   0.88440,   0.88912,   0.22529,  -0.65135,   0.93501,   0.01376,   0.93750,   0.24861,   0.39714,  -0.32831
  -0.48357,  -0.20671,  -0.93750,  -0.14601,   0.14958,  -0.73540,   0.60463,   0.56964,   0.17084,  -0.86908
  -0.58791,  -0.69273,  -0.93750,   0.55845,   0.74529,  -0.80714,  -0.79637,  -0.81620,  -0.60734,   0.82143
   0.61819,   0.20094,   0.11987,  -0.24589,   0.54888,   0.45311,   0.00583,  -0.68848,   0.15598,   0.20547
  -0.26448,  -0.22592,  -0.37824,  -0.31698,   0.87482,  -0.77097,  -0.41213,   0.87446,   0.12319,   0.02697
  -0.46264,   0.62969,   0.29208,   0.49647,  -0.05973,  -0.42708,  -0.30371,   0.45467,  -0.57207,  -0.22595
   0.71389,  -0.28236,  -0.92230,   0.90765,  -0.73736,  -0.81670,   0.93750,  -0.79973,   0.75370,   0.81023
  -0.41740,   0.28159,  -0.93750,   0.86867,  -0.80102,   0.87297,   0.93750,  -0.47228,  -0.48513,   0.38550
  -0.10617,  -0.27611,   0.39924,  -0.00150,   0.29867,   0.14637,  -0.17256,   0.28030,  -0.55423,   0.62292
  -0.30749,   0.01052,  -0.10635,   0.18641,   0.46183,  -0.21432,   0.10405,   0.82259,  -0.31678,   0.06261
   0.26266,   0.32786,   0.93412,  -0.40132,  -0.64470,   0.55840,   0.41540,  -0.69500,  -0.12272,   0.22301
   0.93750,   0.73376,  -0.78580,  -0.87652,  -0.88386,   0.33797,  -0.44265,  -0.90172,   0.50684,   0.93750
  -0.87410,   0.87812,   0.71279,  -0.81117,  -0.81253,   0.72222,  -0.81065,   0.86471,  -0.61739,   0.66941
  -0.80405,   0.34555,  -0.00112,   0.93750,   0.50365,  -0.82085,  -0.07746,  -0.33765,  -0.19575,  -0.63756
  -0.47042,  -0.03639,   0.19223,   0.64886,  -0.61324,  -0.34622,  -0.64716,  -0.04209,   0.06420,  -0.03496
  -0.52140,   0.46530,  -0.75182,  -0.11648,  -0.93091,  -0.00284,  -0.06540,   0.45745,   0.59905,   0.93230
   0.00399,  -0.68693,   0.47799,   0.10134,  -0.18476,  -0.02952,   0.77710,  -0.50164,   0.67384,   0.59367
  -0.35233,   0.13471,  -0.78895,   0.59074,   0.87014,  -0.35419,   0.21598,  -0.85250,   0.58799,   0.45789
  -0.86984,   0.93750,   0.22552,   0.93750,   0.93750,   0.93750,   0.93750,  -0.28487,   0.86710,   0.62985
   0.74367,  -0.23194,  -0.80211,  -0.86729,   0.45281,  -0.51648,   0.23852,  -0.29242,   0.74564,   0.80210
   0.93750,  -0.13400,  -0.73777,  -0.24429,   0.93750,  -0.18049,   0.06337,  -0.51344,  -0.11105,   0.18951
  -0.21895,   0.58950,   0.48905,   0.67844,   0.53326,   0.23341,   0.77304,   0.08982,  -0.34932,  -0.17118
  -0.53659,  -0.74460,  -0.77211,  -0.88026,  -0.13906,   0.18068,   0.60818,   0.14443,   0.56445,  -0.87068
  -0.07411,   0.25364,  -0.93750,  -0.84346,   0.45273,   0.93750,   0.69206,  -0.53112,  -0.93750,  -0.76334
   0.69878,   0.67092,   0.60676,   0.74961,  -0.80916,   0.54275,  -0.93450,   0.63490,   0.74815,   0.59092
   0.37177,   0.93279,  -0.40666,  -0.25040,  -0.44300,   0.54955,   0.93750,   0.87197,   0.20681,  -0.93750
  -0.01623,   0.12348,  -0.44342,   0.17743,   0.48105,  -0.42795,   0.38648,  -0.63569,   0.78606,   0.37756
   0.93750,  -0.21717,  -0.61463,  -0.26973,   0.73205,   0.32533,  -0.32580,  -0.03445,  -0.48588,  -0.01949
  -0.28564,   0.66732,   0.67095,  -0.86921,   0.05223,  -0.69924,   0.54479,  -0.93750,  -0.82464,  -0.82668
  -0.08298,   0.18563,   0.93750,   0.88923,  -0.93750,   0.27578,   0.86822,  -0.87157,  -0.93750,  -0.93750
  -0.14360,   0.87328,   0.87658,   0.81588,   0.87769,  -0.93750,   0.88457,   0.93750,   0.79662,  -0.89107
  -0.74547,  -0.69615,  -0.68736,   0.73565,   0.86516,   0.87218,   0.21915,  -0.11351,  -0.53458,   0.07525
  -0.16786,   0.87404,   0.53398,  -0.81312,   0.25256,  -0.90075,  -0.16829,   0.93750,  -0.85221,   0.87414
   0.29061,  -0.30771,   0.04519,  -0.16532,   0.62471,   0.00783,   0.50737,   0.60464,   0.80020,  -0.46879
   0.93750,  -0.74995,   0.36828,  -0.67167,   0.02425,  -0.47724,  -0.66055,   0.16885,   0.93750,  -0.61189
  -0.06567,  -0.63326,  -0.86766,  -0.45453,  -0.28550,  -0.29674,   0.93750,  -0.93206,  -0.77597,   0.21951
  -0.00943,   0.45131,  -0.38938,  -0.73991,  -0.01705,   0.68367,  -0.79810,  -0.76219,   0.65151,   0.25159
  -0.20871,  -0.93750,  -0.63421,  -0.20709,  -0.60792,   0.29379,  -0.12232,   0.25206,  -0.29370,   0.93750
  -0.80673,  -0.69588,  -0.09603,  -0.48987,  -0.87730,   0.55646,  -0.03677,   0.79275,  -0.62752,  -0.10082
   0.75318,  -0.58332,  -0.38078,  -0.38713,  -0.17447,   0.17663,  -0.15875,  -0.29047,  -0.26573,  -0.62988
  -0.36398,   0.01888,   0.71141,   0.18111,   0.62431,   0.05485,  -0.57672,  -0.52734,   0.03230,  -0.33545
  -0.27140,  -0.19560,  -0.93750,  -0.93750,   0.93750,   0.93750,  -0.01693,  -0.61525,  -0.69195,   0.93750
  -0.91787,  -0.38405,   0.76717,   0.86916,  -0.69294,   0.39729,   0.80015,  -0.78631,   0.16056,  -0.60520
  -0.50173,  -0.30673,   0.21545,  -0.61939,  -0.35616,   0.76013,  -0.60329,   0.81681,   0.15484,   0.57631
   0.00935,  -0.39015,   0.42035,  -0.81565,   0.73337,  -0.69657,   0.81125,  -0.85539,   0.93750,   0.25153
  -0.22153,  -0.25596,  -0.17116,   0.93750,   0.93750,  -0.88052,   0.47082,  -0.92727,   0.71780,  -0.19293
  -0.61512,   0.65228,   0.00943,  -0.14230,   0.52811,  -0.92473,  -0.72753,  -0.28237,   0.93750,   0.05174
   0.13893,   0.02257,   0.65066,  -0.10008,   0.06426,  -0.51220,   0.36384,   0.80437,  -0.24750,  -0.26956
   0.66502,   0.19924,  -0.30727,  -0.05409,  -0.67952,  -0.28879,  -0.42550,   0.93750,   0.14091,   0.23007
  -0.74927,   0.31242,   0.80632,   0.87828,   0.12473,  -0.36790,   0.93489,   0.63975,   0.59066,  -0.74040
   0.62288,  -0.04943,  -0.88056,   0.93750,  -0.16215,   0.78131,  -0.80907,   0.80190,  -0.91123,  -0.93750
   0.92216,  -0.14286,   0.93750,  -0.16026,  -0.29884,   0.64532,   0.80658,   0.87725,   0.75012,   0.12903
  -0.43608,   0.74456,  -0.73586,  -0.84533,  -0.33165,  -0.87212,  -0.59860,  -0.48737,  -0.82331,   0.93750
  -0.03124,   0.08866,  -0.17961,  -0.74279,  -0.20721,   0.93750,  -0.66052,   0.62183,  -0.26478,   0.04480
  -0.15657,   0.74667,   0.10904,  -0.34290,   0.93750,   0.93750,  -0.81071,   0.93750,   0.42323,  -0.82625
  -0.08645,   0.86149,   0.00507,   0.78676,   0.30175,  -0.65639,   0.35931,   0.93750,   0.00441,  -0.23802
   0.79871,   0.06893,  -0.13012,  -0.65972,   0.08429,   0.75289,   0.01904,   0.86647,   0.49580,  -0.64474
  -0.50454,  -0.29305,  -0.28661,  -0.37176,  -0.27195,   0.33626,   0.73295,   0.66886,  -0.42868,  -0.76241
   0.16050,   0.37927,   0.87063,  -0.55041,  -0.10790,  -0.29420,  -0.22913,  -0.27080,  -0.71437,  -0.16208
  -0.70523,   0.67935,   0.55707,   0.79900,   0.74774,  -0.61312,  -0.40801,   0.70832,   0.52046,  -0.11485
  -0.13201,  -0.19202,   0.19283,   0.64517,  -0.36740,  -0.02295,  -0.29230,   0.79501,   0.29992,   0.61296
  -0.45554,   0.69272,  -0.67831,   0.46700,   0.86860,  -0.47836,  -0.74405,  -0.79771,  -0.27051,   0.25183
  -0.22570,   0.39446,  -0.87546,  -0.82545,   0.93750,   0.43961,  -0.28774,  -0.83467,  -0.20212,   0.37404
   0.02746,  -0.87407,   0.93750,  -0.23407,   0.93750,   0.75201,   0.87090,   0.30660,  -0.82050,   0.59652
  -0.32302,   0.93750,  -0.12607,   0.74881,  -0.09679,  -0.65477,   0.47385,  -0.85713,   0.07964,  -0.93011
  -0.93750,  -0.35228,   0.35289,  -0.73484,  -0.59398,  -0.55869,  -0.88330,  -0.93750,  -0.73281,  -0.22471
   0.93750,  -0.53924,   0.87745,  -0.74809,   0.05959,   0.36529,  -0.55495,  -0.70887,  -0.46939,  -0.43131
   0.69517,  -0.80230,  -0.19699,   0.80866,   0.47374,  -0.05428,   0.27783,   0.10674,  -0.49066,  -0.82122
  -0.79625,   0.76355,   0.41379,   0.49642,   0.47681,   0.13683,  -0.68719,   0.86625,   0.86568,  -0.17451
  -0.82060,   0.82723,  -0.53684,  -0.28239,   0.87179,  -0.60829,   0.87684,   0.93750,  -0.93750,  -0.93750
  -0.29791,   0.51067,   0.08291,   0.93750,  -0.93750,  -0.93750,   0.77211,  -0.79355,  -0.85366,  -0.17697
  -0.61183,  -0.24543,   0.77777,   0.35016,  -0.70657,   0.77566,   0.93750,  -0.84203,   0.14369,  -0.20826
  -0.39193,   0.25387,  -0.92323,   0.67674,   0.87539,   0.22894,   0.02322,  -0.05975,  -0.11524,   0.93750
  -0.83495,   0.07495,   0.08783,   0.93750,  -0.85886,   0.93750,  -0.68106,  -0.92192,  -0.27625,  -0.44417
   0.88171,  -0.53660,   0.09436,  -0.53423,  -0.66141,  -0.06851,   0.22930,   0.09802,  -0.38170,   0.56758
  -0.86698,  -0.36769,   0.41981,  -0.85306,   0.25741,  -0.67986,  -0.74092,   0.87481,  -0.80293,  -0.73133
   0.80657,  -0.28524,  -0.93750,   0.70714,  -0.93750,   0.05012,  -0.38408,  -0.11624,   0.30590,   0.32316
  -0.27479,   0.01365,   0.90160,  -0.89075,   0.93750,   0.71715,  -0.12869,   0.11363,  -0.20591,  -0.00177
  -0.23388,  -0.20126,   0.88160,   0.93750,  -0.77147,  -0.60805,  -0.70248,   0.30350,  -0.08179,  -0.26036
  -0.45961,   0.16512,   0.93750,  -0.18908,   0.93750,  -0.73116,  -0.74965,  -0.88638,  -0.24652,  -0.88065
  -0.53922,  -0.78954,  -0.51484,  -0.20354,  -0.04726,   0.73976,   0.91984,   0.11663,   0.45624,  -0.54557
  -0.48275,  -0.20477,  -0.93691,   0.87024,   0.93750,  -0.88114,  -0.86638,  -0.87224,  -0.93750,   0.87398
   0.67471,  -0.39622,   0.93750,  -0.41514,  -0.73938,   0.80087,   0.37075,   0.60907,   0.93750,  -0.08567
  -0.62521,  -0.55131,   0.40216,  -0.12166,  -0.87799,  -0.75496,   0.55232,   0.93750,   0.93750,   0.81523
  -0.46963,   0.93750,   0.40587,   0.44661,  -0.04541,  -0.19991,  -0.61181,   0.87135,  -0.48855,  -0.93750
  -0.32345,  -0.67904,   0.93750,  -0.47007,  -0.59340,   0.76319,  -0.51597,   0.43026,   0.39765,  -0.53719
  -0.79954,   0.45922,   0.07781,   0.74272,  -0.67890,  -0.17564,  -0.53648,   0.16380,  -0.35295,   0.93568
   0.18677,  -0.49450,  -0.52832,   0.45368,   0.16613,  -0.48850,  -0.66439,   0.88079,  -0.52852,   0.01150
  -0.32635,   0.87573,  -0.87426,   0.91870,  -0.72260,   0.93750,   0.18073,  -0.06801,   0.93750,  -0.93750
  -0.61710,  -0.25428,  -0.43522,   0.81591,   0.14198,  -0.58418,  -0.03462,   0.21267,  -0.58188,  -0.23052
  -0.54165,   0.35693,   0.75597,   0.13899,  -0.74575,   0.19736,  -0.16103,   0.70143,   0.31961,   0.40362
  -0.00400,   0.53354,  -0.80105,  -0.23731,   0.62463,   0.82862,  -0.84742,   0.93750,  -0.27354,  -0.87525
   0.32610,   0.82519,  -0.74931,  -0.75559,  -0.60838,   0.69518,  -0.65399,  -0.31673,  -0.01076,   0.93750
  -0.39521,   0.81642,  -0.47855,   0.93750,  -0.80123,   0.82716,   0.41180,  -0.35280,   0.30724,  -0.86422
   0.29574,   0.05894,  -0.25193,  -0.86684,   0.66498,   0.00652,  -0.74391,  -0.04183,  -0.34264,   0.93750
   0.88158,   0.49576,  -0.78445,   0.75591,   0.67108,  -0.33067,  -0.28771,   0.38417,  -0.93750,   0.87674
  -0.06499,  -0.39056,  -0.31995,  -0.55686,  -0.05368,   0.93639,   0.17155,  -0.52657,   0.65701,   0.45632
   0.93750,  -0.29263,  -0.67152,   0.70239,   0.89886,   0.93750,  -0.86833,   0.93750,  -0.04490,  -0.87058
   0.74300,  -0.23791,   0.06692,   0.16835,  -0.86185,  -0.63284,  -0.65499,   0.87323,  -0.02429,   0.87531
  -0.12048,   0.01910,   0.68425,   0.53680,   0.46478,  -0.16818,  -0.46401,  -0.42216,   0.45845,   0.21732
  -0.22058,  -0.52052,  -0.88262,   0.93750,  -0.93750,  -0.11432,   0.93750,   0.04879,  -0.23553,  -0.87821
   0.66932,  -0.76507,   0.83218,   0.93348,   0.11399,  -0.68344,   0.02405,  -0.29564,   0.93750,   0.33479
   0.56435,   0.55608,   0.34160,  -0.71277,  -0.81700,  -0.61784,   0.93750,  -0.69693,   0.54733,   0.18137
   0.24195,   0.93750,   0.54590,   0.63955,  -0.34621,  -0.56170,  -0.26502,  -0.72170,  -0.03806,   0.39868
   0.93750,  -0.56776,   0.68394,   0.54549,   0.66873,   0.25419,   0.44546,  -0.09088,   0.68952,  -0.63037
   0.17753,  -0.92473,  -0.54372,  -0.87781,  -0.33895,  -0.50707,   0.93750,  -0.14827,  -0.16904,  -0.67134
   0.37473,   0.06582,  -0.75499,  -0.06014,   0.34025,  -0.87855,   0.60240,   0.34662,   0.54438,  -0.36024
  -0.93750,   0.43536,  -0.67780,   0.88235,   0.14264,  -0.54155,   0.93750,   0.88142,   0.09089,  -0.93750
   0.75889,   0.93750,  -0.54383,  -0.63891,  -0.67091,  -0.47216,  -0.23142,   0.56022,  -0.69263,   0.85123
   0.92506,  -0.13365,   0.26987,   0.46870,   0.21932,   0.08191,  -0.24137,   0.08653,   0.07246,  -0.73662
  -0.93750,  -0.73944,   0.92991,  -0.40638,   0.87504,  -0.67698,   0.36937,  -0.64022,   0.91065,  -0.47340
  -0.55776,   0.10333,  -0.88055,   0.27489,   0.85438,   0.56867,  -0.35275,   0.64940,   0.93688,  -0.25979
  -0.36515,  -0.37204,  -0.21717,   0.09568,   0.93750,   0.67343,  -0.10014,  -0.05742,   0.63289,   0.03210
  -0.85345,   0.93750,  -0.30932,  -0.17060,   0.18151,   0.53893,  -0.61422,   0.23092,  -0.49955,  -0.91797
  -0.05462,  -0.23184,  -0.06741,  -0.81524,   0.03473,   0.81733,   0.93750,   0.52455,  -0.18914,   0.00598
  -0.10757,  -0.45608,   0.52274,  -0.64142,   0.65160,  -0.76341,   0.54322,   0.55135,  -0.48444,  -0.48108
   0.78854,   0.29717,   0.30326,  -0.11910,   0.07308,  -0.16338,   0.41911,   0.51029,  -0.17381,   0.78674
  -0.86333,  -0.41394,   0.91032,  -0.91135,   0.71501,   0.93750,  -0.73361,  -0.87527,  -0.18301,   0.32342
  -0.02806,   0.03276,   0.93750,  -0.87396,   0.87176,  -0.70749,   0.93750,  -0.47980,   0.35920,  -0.34731
   0.88053,  -0.67624,  -0.49118,   0.43314,  -0.87707,   0.05962,  -0.74398,  -0.93750,  -0.60098,   0.02726
   0.57847,   0.60648,   0.08186,  -0.47643,   0.66464,   0.13434,  -0.37430,   0.33466,  -0.05893,  -0.62001
  -0.71450,  -0.87542,   0.43627,  -0.21215,   0.21666,   0.93750,   0.93750,  -0.93750,  -0.71117,   0.90150
  -0.39915,   0.24409,   0.93750,   0.24620,  -0.40742,   0.61709,  -0.40247,  -0.07548,   0.26899,  -0.01652
   0.87586,   0.70279,  -0.93750,  -0.46638,   0.51577,   0.27071,   0.26841,  -0.93750,   0.31537,  -0.35868
   0.26442,   0.67970,  -0.59648,   0.36853,   0.93750,  -0.34923,  -0.09249,  -0.93750,   0.40336,   0.64390
  -0.13670,   0.50969,  -0.10016,  -0.34619,  -0.38633,   0.93750,   0.19053,   0.62115,   0.93750,   0.93750
  -0.63495,   0.12757,   0.24528,   0.49619,  -0.93750,   0.73798,  -0.63484,  -0.93750,   0.72381,  -0.93750
  -0.19797,  -0.05647,   0.40503,   0.20217,  -0.00059,  -0.24921,  -0.80820,   0.93750,  -0.49572,   0.67548
  -0.10867,   0.06618,  -0.50494,   0.59279,   0.29193,  -0.87114,   0.71083,  -0.75442,  -0.93750,  -0.48672
   0.93750,   0.19352,   0.05241,   0.69739,   0.53637,   0.04450,  -0.01466,  -0.72787,  -0.67861,   0.36094
   0.93750,   0.23724,  -0.79939,   0.09672,   0.80509,  -0.25737,   0.22087,   0.38568,  -0.38171,   0.29984
  -0.11855,  -0.47978,   0.63551,   0.68824,  -0.55353,  -0.66303,  -0.73136,   0.66120,  -0.26229,   0.53341
   0.66810,   0.64171,   0.38782,   0.93750,  -0.21111,  -0.72032,   0.60871,  -0.35573,  -0.32692,   0.93750
  -0.17080,  -0.20209,   0.41773,   0.31603,  -0.25381,  -0.38064,  -0.14140,  -0.36158,  -0.38274,   0.76701
  -0.81309,  -0.93750,  -0.35812,  -0.93750,  -0.64139,   0.57723,  -0.15348,  -0.93750,   0.67917,  -0.90454
  -0.22678,   0.56658,  -0.44304,  -0.41369,  -0.28248,   0.93750,  -0.59940,  -0.47865,   0.47502,  -0.09434
  -0.68047,   0.05414,  -0.65684,   0.54877,   0.35742,   0.60507,   0.59757,   0.06259,  -0.54282,   0.64323
  -0.27925,   0.08219,   0.93750,   0.93750,  -0.48687,  -0.42127,   0.20949,   0.36214,   0.24450,  -0.43865
   0.93750,   0.80617,   0.93166,  -0.87774,  -0.92825,  -0.40539,  -0.24183,   0.22931,  -0.93750,   0.32818
   0.08139,   0.21151,  -0.20047,  -0.32722,  -0.20614,   0.73626,  -0.25250,  -0.39357,   0.04283,  -0.01211
   0.15106,  -0.93750,  -0.36232,  -0.26137,  -0.81972,  -0.24354,   0.65162,   0.93676,  -0.08451,  -0.81982
   0.08093,  -0.48357,  -0.58315,   0.58181,  -0.93750,  -0.00159,   0.93750,   0.74434,  -0.44599,   0.87953
   0.70479,  -0.22450,   0.47358,   0.93750,  -0.06507,  -0.58525,  -0.57145,   0.31084,  -0.88731,   0.91722
  -0.02813,   0.26389,   0.38542,  -0.65634,   0.60552,  -0.31372,   0.12405,  -0.22550,  -0.04540,  -0.22812
  -0.20210,   0.93750,  -0.87775,   0.93750,  -0.50789,   0.23323,   0.54517,   0.38159,  -0.17267,  -0.80381
  -0.04964,  -0.82093,   0.08983,   0.18808,  -0.31046,  -0.04494,   0.83127,   0.11121,  -0.06571,   0.92749
  -0.34494,  -0.38665,  -0.54725,  -0.40051,   0.21390,   0.79390,   0.22178,   0.56000,   0.50968,  -0.15788
  -0.29779,   0.93750,  -0.51432,   0.09731,   0.74462,   0.02835,  -0.82992,   0.10229,   0.03666,  -0.93230
   0.75791,  -0.38146,  -0.72903,   0.93750,   0.18155,  -0.93750,  -0.40965,  -0.29599,  -0.93750,   0.87445
   0.93750,  -0.93750,  -0.60931,   0.68117,  -0.82811,  -0.93750,   0.93750,  -0.30729,  -0.42331,  -0.14340
   0.56154,   0.66092,  -0.92165,  -0.55156,  -0.28119,  -0.86978,   0.71235,  -0.06871,   0.93750,   0.34591
  -0.52233,   0.08622,  -0.79167,  -0.21858,   0.07805,  -0.38815,   0.64018,   0.44728,   0.71002,   0.90070
   0.60254,  -0.00083,  -0.73695,   0.47298,   0.57291,  -0.90675,  -0.19186,  -0.86462,   0.56419,  -0.59173
   0.53736,   0.05118,  -0.71092,  -0.42329,   0.91118,   0.77910,   0.79965,  -0.38294,   0.26077,  -0.04349
  -0.03820,   0.28848,  -0.37706,  -0.71046,   0.31189,   0.86843,  -0.43090,  -0.14452,   0.05506,  -0.18152
   0.87699,   0.04158,   0.93750,  -0.76770,   0.33346,  -0.83837,  -0.39231,   0.54614,  -0.31914,   0.93076
  -0.01425,  -0.79503,   0.93750,   0.05810,   0.81577,  -0.55290,   0.67582,   0.07672,   0.43179,   0.62334
   0.82055,  -0.23535,  -0.10731,  -0.27553,   0.54786,  -0.77761,   0.85738,  -0.42468,   0.01474,   0.12824
  -0.48765,   0.12518,  -0.61249,   0.48221,   0.93750,   0.72192,   0.02143,  -0.66922,  -0.93750,  -0.14033
   0.17122,   0.42182,   0.19337,   0.87689,  -0.13408,  -0.77058,  -0.22705,   0.26903,  -0.12273,  -0.42554
   0.86309,  -0.26244,  -0.12879,   0.93750,   0.93285,   0.65743,   0.46769,   0.84601,  -0.03194,  -0.07928
  -0.24126,  -0.33678,   0.08209,   0.93750,  -0.24553,   0.35102,  -0.51101,  -0.93750,   0.37836,   0.93750
  -0.64585,   0.33669,  -0.44008,   0.41245,   0.60324,   0.26278,   0.47075,   0.65260,  -0.13395,  -0.23815
  -0.33951,  -0.23684,   0.82574,   0.86976,  -0.40488,  -0.64931,  -0.18293,  -0.69433,  -0.06198,   0.35235
   0.57024,   0.36101,   0.08608,  -0.39717,  -0.50275,  -0.89001,  -0.46256,   0.93750,  -0.61065,   0.25828
  -0.16150,   0.93750,  -0.86006,  -0.40357,  -0.29756,  -0.22741,  -0.35173,  -0.44357,   0.39544,  -0.73655
   0.06336,   0.22338,  -0.06502,   0.40898,   0.79718,  -0.60545,   0.15758,   0.12413,  -0.22207,   0.41453
  -0.79522,   0.04022,  -0.76302,   0.33534,   0.93129,   0.21518,  -0.54418,   0.16723,   0.46372,   0.09839
   0.02529,   0.16105,  -0.12979,   0.15416,  -0.40004,  -0.67154,   0.53713,   0.87527,   0.33658,  -0.15382
  -0.10230,   0.63922,  -0.80284,  -0.56615,   0.80439,  -0.16766,   0.26250,  -0.28211,   0.79963,  -0.36669
  -0.15029,   0.30701,   0.93750,   0.41613,   0.90546,  -0.57719,  -0.17714,   0.34766,  -0.87728,   0.93750
   0.93750,  -0.53491,  -0.91977,  -0.30827,  -0.67465,   0.93750,  -0.11851,   0.69174,  -0.93750,  -0.33403
   0.83514,   0.16369,  -0.52080,   0.20199,   0.77463,  -0.49970,   0.05749,  -0.25282,  -0.17507,   0.50407
  -0.51063,  -0.92044,  -0.48515,  -0.34509,  -0.51379,   0.07330,   0.93750,  -0.18463,  -0.42866,  -0.26416
  -0.49750,  -0.05198,  -0.92091,  -0.64143,   0.93731,   0.16527,  -0.91885,   0.88271,  -0.57656,   0.63790
   0.16406,  -0.53459,   0.74118,   0.03104,  -0.74034,   0.87384,  -0.17459,  -0.93225,   0.22694,  -0.87818
   0.71373,   0.61975,   0.48714,   0.33994,   0.09247,  -0.58592,  -0.61308,   0.28044,  -0.48953,  -0.15612
  -0.90313,   0.32930,   0.93750,  -0.18268,  -0.69057,  -0.91215,  -0.61540,  -0.92740,  -0.04579,   0.86539
  -0.32218,   0.93750,   0.58137,   0.07713,   0.85872,  -0.48160,  -0.39168,  -0.28605,  -0.75402,  -0.87884
  -0.77106,   0.88206,  -0.80436,  -0.08890,  -0.06387,   0.15335,  -0.29895,  -0.14502,  -0.75223,  -0.52216
   0.19404,  -0.42191,  -0.20109,  -0.46685,  -0.40194,   0.74737,  -0.49649,  -0.41098,  -0.55794,  -0.04611
  -0.93750,  -0.71836,   0.86169,   0.71200,   0.36584,  -0.34772,   0.00300,   0.33131,   0.02195,  -0.24578
   0.15794,   0.54254,   0.36751,   0.67657,  -0.22793,  -0.49520,   0.28509,  -0.36788,  -0.25690,  -0.27294
   0.40753,   0.70343,  -0.41826,   0.93750,  -0.91704,  -0.81399,   0.28053,  -0.92907,  -0.88998,   0.05504
  -0.13192,   0.43230,  -0.45421,  -0.68718,   0.52215,   0.49565,   0.03412,   0.42072,  -0.33699,   0.60957
   0.34791,  -0.20934,  -0.19431,   0.63586,   0.06099,  -0.68131,   0.77949,  -0.52754,   0.81792,   0.27436
   0.73728,   0.93750,  -0.71018,  -0.56519,  -0.78477,   0.32592,  -0.55161,   0.35245,  -0.44448,   0.80776
   0.56223,  -0.62444,   0.43170,  -0.62098,  -0.65435,   0.33406,   0.19650,   0.06017,  -0.00469,  -0.12362
   0.02009,  -0.20108,  -0.93420,  -0.93750,   0.93750,   0.61525,   0.43185,   0.42509,   0.46132,   0.09391
  -0.41013,  -0.19471,  -0.39988,   0.70416,  -0.82061,   0.01350,   0.93616,   0.93750,  -0.03179,  -0.31098
  -0.92882,  -0.30202,   0.93750,  -0.11035,  -0.80751,   0.93164,   0.42247,  -0.39370,   0.22816,   0.26789
  -0.04459,  -0.20805,  -0.50318,   0.74374,   0.89711,  -0.01360,  -0.58107,  -0.11738,   0.06430,   0.28609
   0.86808,  -0.79763,   0.79385,  -0.83050,   0.45840,   0.34172,   0.74544,   0.16291,   0.87993,  -0.68568
   0.27490,   0.54560,   0.93750,  -0.93750,   0.93750,  -0.93750,  -0.93750,  -0.54443,   0.35583,   0.93750
  -0.76444,   0.45218,  -0.72583,   0.64701,   0.93750,   0.74735,  -0.74719,   0.71651,  -0.75695,  -0.88116
   0.27710,  -0.14733,   0.74978,  -0.67845,   0.83805,  -0.57890,  -0.28560,  -0.27608,   0.30645,   0.43084
  -0.93750,  -0.93750,  -0.93750,  -0.01473,  -0.16287,   0.18336,  -0.18339,  -0.02562,   0.67546,   0.14310
  -0.88388,   0.35666,   0.70908,   0.46096,  -0.93750,  -0.18114,   0.89245,  -0.42878,  -0.50596,   0.93750
  -0.56350,   0.27751,   0.66403,  -0.22754,   0.07347,   0.88519,  -0.06294,  -0.55151,  -0.22987,  -0.01417
   0.69007,  -0.28486,  -0.61116,   0.45707,   0.82261,  -0.14768,   0.75714,   0.81322,   0.02340,   0.81630
  -0.48912,  -0.39773,  -0.34588,  -0.22570,  -0.49127,   0.67710,   0.93495,   0.79310,  -0.11685,  -0.50693
  -0.87987,  -0.84200,  -0.64755,  -0.77484,  -0.84325,   0.21082,  -0.69752,   0.34853,  -0.46910,  -0.93750
   0.74821,   0.42020,  -0.76306,  -0.40929,  -0.57440,   0.32474,  -0.03494,  -0.10347,  -0.73291,  -0.81359
  -0.67070,  -0.10421,  -0.93182,   0.61395,   0.84751,   0.75240,  -0.71239,  -0.00936,  -0.21245,   0.45588
  -0.70608,  -0.80368,  -0.93750,   0.46783,   0.61912,   0.16935,  -0.80295,   0.93750,   0.14741,  -0.28709
  -0.87604,   0.60021,   0.90134,   0.93118,  -0.93750,  -0.93750,  -0.60381,   0.93750,   0.17831,   0.23168
   0.93750,  -0.93750,  -0.58660,  -0.10705,   0.36520,  -0.17309,  -0.80459,   0.93750,   0.65407,   0.13474
  -0.33562,   0.65399,   0.69598,  -0.47478,  -0.54684,   0.86125,   0.33197,   0.08763,  -0.35682,   0.05246
   0.93750,  -0.55660,  -0.93750,   0.60791,  -0.66425,   0.93750,  -0.93750,  -0.39186,   0.61963,  -0.15850
  -0.14552,   0.72175,   0.81236,  -0.58628,   0.46201,   0.25222,  -0.24185,   0.37237,  -0.15973,  -0.20957
   0.62260,   0.76383,   0.81339,   0.23470,  -0.07105,  -0.35385,   0.13801,  -0.01310,  -0.54888,   0.11034
   0.79444,   0.64352,  -0.14799,   0.20744,  -0.09090,  -0.12859,   0.22701,   0.17271,   0.27677,  -0.46746
   0.21321,   0.35660,  -0.22446,  -0.65045,   0.85928,  -0.64843,  -0.22611,   0.87083,  -0.27624,   0.09525
  -0.67423,   0.93750,  -0.73712,   0.36525,  -0.01319,  -0.31638,  -0.76790,  -0.16982,   0.82735,   0.82587
  -0.88219,   0.93750,   0.71646,  -0.88094,   0.32645,  -0.76502,   0.74651,  -0.75882,   0.93750,  -0.51221
   0.86626,  -0.53179,  -0.87294,  -0.68690,   0.38271,  -0.66410,   0.93750,  -0.44236,   0.65303,  -0.18215
  -0.03283,  -0.13758,  -0.25068,   0.18780,   0.09142,   0.15670,   0.25357,   0.18513,   0.10781,   0.13703
   0.93750,   0.01370,   0.14817,   0.88896,   0.29991,  -0.75167,  -0.84833,  -0.50486,  -0.39366,  -0.44365
   0.62231,   0.10070,  -0.82769,   0.68504,  -0.87791,  -0.74792,   0.87214,   0.81055,   0.21641,   0.14775
   0.71071,  -0.00950,   0.44971,  -0.40871,   0.87491,  -0.27716,   0.10727,  -0.67433,  -0.18746,  -0.31865
  -0.39978,  -0.08649,   0.56830,  -0.62348,   0.29088,   0.88419,   0.41416,  -0.28979,   0.01837,   0.40457
   0.15821,  -0.03460,  -0.58817,  -0.71083,  -0.55357,   0.93750,   0.48324,   0.93750,   0.11179,   0.06996
  -0.05892,   0.09480,  -0.27085,  -0.73394,   0.10903,   0.90241,   0.00790,   0.32880,   0.13800,   0.33584
   0.93750,  -0.18791,  -0.87368,   0.68309,   0.42545,   0.27640,   0.53164,   0.12044,  -0.67639,  -0.88330
  -0.68466,   0.66225,  -0.82911,   0.47799,   0.59568,  -0.53151,  -0.88131,  -0.58712,  -0.87417,   0.23568
  -0.87131,  -0.93750,   0.93750,  -0.60084,  -0.93750,   0.85309,  -0.74578,  -0.10511,  -0.93750,   0.16017
   0.88209,  -0.68601,   0.50034,  -0.87117,   0.83177,   0.26297,   0.51009,  -0.93750,  -0.44211,  -0.21704
   0.91259,   0.04710,  -0.63740,  -0.41202,   0.09381,  -0.10505,   0.58040,   0.20572,  -0.64094,  -0.50536
   0.01445,  -0.03412,   0.38004,   0.81304,   0.91765,  -0.48721,  -0.19906,  -0.29999,   0.51419,   0.00930
  -0.80698,   0.34555,  -0.64870,   0.26070,   0.93718,   0.61014,  -0.46982,  -0.34955,  -0.17401,   0.93750
   0.03716,   0.93750,   0.04452,  -0.54769,   0.93750,   0.93750,  -0.73774,  -0.87883,  -0.93750,  -0.85593
  -0.93750,  -0.81774,   0.47480,   0.67773,  -0.62551,  -0.53822,  -0.59339,   0.87312,  -0.88055,  -0.85974
  -0.46157,   0.19298,  -0.15677,  -0.17433,  -0.13121,   0.74456,   0.10657,  -0.87845,  -0.30558,   0.20821
  -0.12067,  -0.12280,   0.03418,   0.55142,   0.88267,   0.13709,  -0.29689,   0.42925,  -0.28324,   0.22446
   0.73015,   0.65815,   0.23881,   0.07579,   0.93750,  -0.08024,  -0.42441,  -0.86877,  -0.50534,  -0.62821
   0.31115,   0.42820,  -0.69317,   0.93750,   0.71046,  -0.93750,  -0.81008,  -0.81859,   0.86930,   0.86898
   0.87751,  -0.14484,  -0.81805,   0.35587,   0.87512,  -0.87972,   0.86911,  -0.51958,  -0.92041,  -0.50701
   0.93750,   0.93750,  -0.00919,   0.93750,   0.53148,  -0.70578,   0.54391,   0.93750,  -0.77030,  -0.93750
  -0.13712,  -0.17238,   0.22983,   0.21410,  -0.37555,   0.11690,  -0.13738,   0.08652,   0.57642,  -0.16060
   0.75525,   0.06406,  -0.26609,  -0.41050,   0.93750,  -0.10508,   0.86085,  -0.22790,  -0.18169,  -0.10271
  -0.33541,  -0.61418,   0.31268,  -0.84508,   0.93750,  -0.60369,  -0.81382,  -0.15784,   0.08128,  -0.50994
  -0.93750,  -0.76800,   0.93750,  -0.87848,  -0.16447,   0.93750,  -0.67719,   0.86953,  -0.73076,   0.02122
   0.93750,  -0.01958,   0.48174,   0.51111,  -0.25970,  -0.86849,   0.81256,  -0.54852,  -0.78176,   0.32300
  -0.87020,  -0.93750,   0.33637,   0.53617,   0.35911,   0.44576,  -0.16274,   0.25919,   0.85188,   0.46010
   0.19159,   0.52232,  -0.11067,  -0.35306,  -0.14221,  -0.45934,   0.19111,   0.63173,   0.40257,  -0.93111
  -0.68324,   0.00667,  -0.57303,  -0.91448,   0.45070,   0.93750,  -0.52788,   0.34805,  -0.37665,  -0.06604
   0.48037,   0.34533,   0.17014,   0.35908,  -0.11235,   0.93750,   0.23448,  -0.76659,   0.39334,   0.27343
  -0.86747,   0.45380,   0.93750,  -0.23770,   0.49332,  -0.73212,  -0.52456,  -0.18269,  -0.01079,   0.25446
   0.87130,   0.18284,  -0.68712,  -0.08789,  -0.79193,   0.40170,   0.55731,   0.93750,   0.19694,  -0.47747
  -0.86667,   0.19783,  -0.18148,  -0.92383,  -0.14972,   0.26643,   0.93750,   0.25086,   0.93062,   0.93007
   0.26632,  -0.50067,   0.79059,   0.91638,  -0.87380,   0.00318,  -0.26542,  -0.03678,   0.93750,  -0.63342
  -0.29881,   0.83887,   0.43352,  -0.04182,  -0.53671,  -0.58045,  -0.11665,   0.92969,   0.34136,   0.17524
  -0.04899,  -0.06021,   0.78901,   0.10345,  -0.62902,   0.23840,  -0.84663,  -0.06235,   0.51036,   0.14763
   0.69178,   0.25538,   0.24609,   0.75024,   0.78228,  -0.57905,  -0.69880,  -0.69430,   0.13973,  -0.34416
   0.44537,   0.17500,   0.32659,  -0.07103,  -0.45758,  -0.20912,   0.65446,   0.51976,   0.03479,  -0.00860
   0.61342,   0.45324,  -0.00150,   0.29195,   0.19284,   0.67526,   0.67408,  -0.33887,  -0.68767,  -0.59688
  -0.33943,  -0.55406,  -0.52563,  -0.93143,  -0.60737,   0.93750,   0.61407,  -0.80818,  -0.44271,  -0.71681
  -0.83143,  -0.75334,  -0.75867,   0.46050,  -0.66325,  -0.05899,  -0.73127,   0.46966,   0.93750,   0.93750
  -0.93584,   0.37026,   0.60377,   0.38539,  -0.56837,  -0.17393,  -0.16612,   0.21903,   0.93750,   0.84401
   0.40285,  -0.39925,   0.56343,  -0.44148,   0.86503,  -0.27861,  -0.35564,  -0.22160,  -0.64081,   0.93750
  -0.63315,  -0.21236,  -0.93625,   0.05750,  -0.19720,  -0.88003,  -0.35567,  -0.02319,   0.93750,   0.23676
  -0.34741,  -0.07476,  -0.69346,   0.06518,  -0.22443,   0.84021,   0.63657,  -0.41520,   0.11520,   0.61523
  -0.71967,  -0.04906,  -0.63525,  -0.49050,  -0.20763,   0.33360,   0.45355,  -0.45974,   0.87835,   0.04614
   0.36675,  -0.62654,   0.56017,  -0.87377,   0.21908,  -0.50770,  -0.92601,   0.18536,  -0.06962,   0.62285
   0.87050,   0.39705,  -0.02698,   0.36171,   0.93750,   0.27591,  -0.77340,   0.70954,   0.40446,   0.89024
   0.23396,  -0.10673,   0.44537,  -0.62139,   0.35793,  -0.50348,  -0.21634,   0.66162,  -0.30317,   0.31488
  -0.26080,  -0.31660,   0.12867,  -0.52978,   0.93750,  -0.73332,   0.59425,   0.92745,   0.60669,   0.42557
   0.29568,  -0.16003,  -0.89162,  -0.03313,  -0.27945,   0.81965,   0.21117,  -0.34800,   0.17149,   0.12041
   0.11281,   0.68494,  -0.77089,  -0.66974,   0.87730,   0.93750,  -0.79886,   0.86849,   0.62702,  -0.13694
   0.84395,   0.46077,   0.93750,  -0.58467,  -0.68264,  -0.15039,  -0.00125,   0.13230,  -0.45375,  -0.05152
   0.18134,  -0.11185,  -0.17771,   0.74788,   0.14866,  -0.53394,   0.59095,  -0.25638,   0.23125,   0.67786
   0.22508,  -0.61251,  -0.79768,   0.68338,   0.25009,  -0.71156,  -0.56424,  -0.44953,   0.35470,  -0.23839
  -0.69474,   0.78406,   0.93022,   0.86968,  -0.63524,   0.93750,   0.93750,  -0.86508,   0.87147,  -0.18580
   0.92807,   0.04879,   0.93750,  -0.74045,   0.92211,  -0.93401,   0.08544,   0.87514,  -0.66392,  -0.62922
   0.03264,  -0.14936,  -0.42744,  -0.26825,  -0.11060,  -0.24289,   0.93750,   0.58989,   0.26459,   0.20167
  -0.29653,  -0.93750,  -0.93750,  -0.68997,   0.93750,   0.33321,   0.90992,   0.93750,  -0.08185,   0.93750
   0.14722,  -0.89178,   0.09335,   0.56941,   0.63218,  -0.87931,  -0.90098,   0.93750,   0.60149,  -0.80110
  -0.38521,  -0.64009,   0.93750,  -0.47700,   0.87860,   0.76666,  -0.16798,   0.79561,   0.62152,   0.18767
  -0.54368,   0.35465,   0.79663,   0.51543,   0.63212,   0.14762,   0.43585,  -0.46119,  -0.38077,  -0.09635
   0.93750,   0.93750,  -0.46697,   0.93750,   0.47782,  -0.93750,   0.42580,   0.61812,  -0.76142,  -0.93750
   0.93750,  -0.56641,  -0.60716,   0.50876,  -0.63735,   0.60429,   0.44866,  -0.69962,   0.93750,  -0.93652
   0.07601,  -0.27247,   0.26541,  -0.61210,   0.32304,  -0.74653,   0.93750,  -0.21600,  -0.19292,   0.26278
   0.48875,  -0.67076,   0.83360,   0.34250,  -0.66068,  -0.42718,   0.80884,  -0.80671,  -0.37402,  -0.37404
  -0.73757,   0.57908,  -0.23359,   0.93750,  -0.34385,   0.81288,  -0.79580,  -0.33258,  -0.93750,  -0.71714
  -0.44546,  -0.16645,  -0.72440,   0.66603,  -0.62902,   0.61854,   0.90244,  -0.91138,  -0.67934,  -0.74527
   0.71646,  -0.25298,  -0.74178,  -0.78707,   0.43168,  -0.35625,   0.93750,  -0.44238,  -0.39434,  -0.19457
   0.20746,  -0.01804,   0.93750,   0.19968,  -0.11288,   0.23143,  -0.63166,   0.34562,  -0.48667,  -0.06248
  -0.40887,   0.04016,  -0.80733,  -0.60946,   0.61431,  -0.03723,   0.69386,   0.55538,  -0.76753,  -0.67781
   0.87874,  -0.47634,  -0.48067,  -0.61004,   0.62462,   0.21303,  -0.49983,   0.87675,   0.87648,   0.54897
   0.49709,   0.26445,  -0.80110,  -0.80043,   0.92810,   0.93750,   0.12593,   0.03471,   0.38307,   0.06323
  -0.78868,   0.93750,   0.65799,  -0.58694,  -0.36996,   0.44623,  -0.33015,   0.35601,  -0.93750,   0.93750
   0.11714,   0.40031,  -0.14156,   0.52201,   0.80060,  -0.50046,  -0.63996,  -0.30088,   0.60339,  -0.41971
  -0.41130,   0.20066,  -0.05593,  -0.41896,   0.12290,   0.92873,   0.46632,  -0.10341,  -0.04147,   0.63162
  -0.60210,   0.14101,  -0.74466,   0.67983,   0.43438,   0.93750,  -0.21051,   0.33429,  -0.28959,  -0.60267
   0.67351,  -0.02268,   0.09518,  -0.63621,   0.16876,  -0.40006,   0.74915,  -0.68894,  -0.62977,  -0.70769
  -0.81582,  -0.48593,   0.93750,  -0.25416,  -0.29248,   0.08890,  -0.76821,  -0.93750,  -0.78791,  -0.10207
  -0.91437,  -0.03581,   0.81388,   0.81775,   0.66626,   0.13109,   0.57264,  -0.19118,  -0.81110,   0.63562
   0.18314,   0.00744,   0.78816,  -0.67153,  -0.04762,   0.88252,   0.59449,  -0.17303,   0.06580,  -0.24334
  -0.42966,  -0.77976,   0.27254,   0.93750,   0.72382,  -0.44061,  -0.59453,   0.37592,   0.18677,  -0.26918
   0.67630,  -0.04404,  -0.93750,   0.93750,   0.37506,  -0.93750,   0.69885,  -0.04496,   0.05203,   0.04895
   0.01551,  -0.67430,   0.00389,   0.27541,  -0.41132,   0.88236,  -0.68646,   0.24449,   0.87141,  -0.45652
   0.80553,  -0.79247,  -0.77295,  -0.29774,  -0.13494,  -0.20960,   0.51753,  -0.53540,  -0.15009,   0.93750
   0.17791,   0.71850,  -0.81928,  -0.66537,   0.93750,  -0.74285,  -0.24804,   0.80948,   0.93750,   0.29106
  -0.51357,  -0.07634,  -0.20414,   0.80724,   0.20828,  -0.89594,  -0.19370,   0.73777,   0.23879,  -0.75349
   0.23015,   0.49161,   0.13536,  -0.00029,   0.76852,   0.14712,  -0.13119,   0.00666,  -0.02428,  -0.31231
  -0.31552,   0.18792,  -0.00455,  -0.92695,   0.72237,   0.57371,   0.17160,  -0.30286,   0.11861,   0.16066
   0.51224,   0.46568,  -0.81050,   0.46810,  -0.93750,  -0.66322,  -0.16950,   0.93750,  -0.35441,   0.22849
   0.36415,   0.40496,   0.02997,  -0.87694,   0.39924,   0.93046,  -0.42795,  -0.19751,   0.06554,   0.55491
   0.03289,   0.23361,   0.88855,   0.06455,   0.23377,  -0.35134,  -0.11852,   0.90027,  -0.23979,  -0.31903
   0.72494,   0.93642,   0.40351,  -0.18735,  -0.00593,  -0.27033,   0.55664,   0.08249,   0.00146,  -0.93308
   0.66098,  -0.67961,   0.58300,  -0.58738,  -0.04034,  -0.78149,   0.45899,   0.93750,  -0.19337,  -0.31865
  -0.22430,  -0.26793,  -0.81172,  -0.23274,  -0.42924,   0.66623,   0.86970,  -0.62394,   0.66381,  -0.03738
  -0.93750,   0.74336,   0.93750,  -0.87601,  -0.93750,   0.90177,  -0.93750,  -0.93750,   0.86947,  -0.74432
  -0.51709,   0.18878,  -0.74320,   0.80948,   0.56106,  -0.85928,  -0.19019,   0.02204,   0.93750,   0.41342
   0.13954,  -0.68081,  -0.27765,   0.47598,  -0.24935,   0.80664,  -0.86402,  -0.04643,   0.74744,  -0.55178
   0.93750,   0.77904,  -0.88162,  -0.43746,   0.15820,   0.83141,  -0.28661,  -0.47598,  -0.14490,  -0.25424
  -0.86785,   0.87218,  -0.13591,   0.93750,   0.54586,  -0.93750,  -0.87184,  -0.66986,   0.71396,  -0.79423
   0.93750,  -0.48428,   0.93750,  -0.36615,  -0.60550,   0.02903,  -0.20868,  -0.86917,  -0.59835,  -0.63043
  -0.81273,  -0.27527,  -0.68778,   0.93099,  -0.70799,   0.93750,  -0.46531,  -0.61322,   0.82870,   0.56836
   0.67256,   0.65414,  -0.93750,  -0.87040,  -0.92030,   0.32880,   0.79950,   0.80260,   0.41404,   0.88049
  -0.69898,   0.06235,   0.25988,  -0.29959,   0.93750,  -0.78041,   0.69384,   0.62407,  -0.54404,   0.01683
  -0.06860,  -0.04326,  -0.00072,  -0.87702,  -0.64535,   0.80295,   0.93750,  -0.44429,  -0.23838,  -0.83944
  -0.27851,  -0.64664,   0.13339,  -0.05580,  -0.71017,   0.05146,  -0.45213,   0.93750,   0.90481,  -0.21432
   0.42680,   0.02674,  -0.12907,  -0.43680,  -0.20460,   0.73105,  -0.47995,  -0.62371,   0.08935,  -0.03138
   0.80043,  -0.73551,  -0.58197,  -0.76204,  -0.76151,   0.79979,  -0.23305,  -0.74642,   0.55755,  -0.88557
  -0.87897,  -0.79905,   0.76475,  -0.56513,   0.23065,   0.66034,  -0.09227,   0.86819,   0.93750,   0.87652
   0.93132,  -0.54644,   0.82905,   0.93750,   0.93750,   0.12410,  -0.38762,  -0.44196,  -0.63334,  -0.62361
  -0.05330,   0.39571,  -0.52656,  -0.74226,  -0.10030,   0.70918,  -0.38673,   0.19486,  -0.62720,   0.41484
   0.37908,   0.07846,  -0.71023,  -0.37889,  -0.06184,   0.92840,  -0.26620,   0.22201,   0.11710,  -0.11252
  -0.10009,  -0.41222,  -0.91287,  -0.19507,  -0.48498,  -0.93750,  -0.93750,   0.39320,  -0.47174,   0.93750
   0.13244,  -0.75842,   0.93750,   0.11269,  -0.45132,  -0.31150,   0.24919,  -0.05055,   0.02134,   0.89470
  -0.03293,   0.43881,  -0.87695,  -0.55525,  -0.05864,   0.80491,   0.48885,   0.00587,   0.52452,  -0.03794
   0.45525,  -0.21477,  -0.27262,  -0.76850,  -0.19001,   0.73293,   0.23798,  -0.21695,  -0.24071,  -0.03895
   0.68445,   0.43396,  -0.67457,   0.93750,  -0.25984,   0.85211,  -0.73928,  -0.71582,   0.48556,  -0.67052
   0.80258,  -0.33013,   0.11091,   0.63010,   0.39493,   0.02567,  -0.64569,   0.03880,  -0.20053,   0.00759
  -0.53867,   0.36725,  -0.67863,  -0.33115,  -0.93750,   0.23033,   0.93750,   0.16503,   0.24504,   0.13437
  -0.93476,  -0.93750,   0.19905,   0.80996,   0.69420,   0.58820,  -0.33383,  -0.19953,   0.87347,  -0.67911
  -0.77298,   0.43065,   0.93750,   0.87239,  -0.89165,  -0.07823,   0.92874,  -0.02882,  -0.51388,  -0.11859
   0.45827,   0.16167,  -0.55853,  -0.62080,   0.43243,  -0.62564,   0.21256,   0.93750,  -0.14026,  -0.17513
   0.47440,  -0.59492,   0.43897,   0.74865,  -0.65218,  -0.71801,  -0.14433,   0.93750,  -0.11776,   0.92141
   0.81596,   0.36967,  -0.41066,  -0.01538,   0.28863,  -0.62234,  -0.93750,   0.69905,  -0.86612,   0.87652
   0.68769,  -0.10210,  -0.21146,   0.93750,  -0.00641,  -0.72833,   0.17287,   0.85214,   0.71642,  -0.12147
   0.01014,   0.58362,  -0.04177,   0.69602,   0.20988,  -0.07273,   0.09893,   0.61519,   0.42971,  -0.06737
  -0.72536,   0.87258,  -0.93750,   0.90601,   0.46033,   0.88270,   0.34267,   0.93750,   0.40741,  -0.86189
  -0.74139,   0.07805,   0.87560,  -0.93750,   0.81337,   0.93750,  -0.04915,   0.36521,  -0.02109,  -0.72523
   0.20943,  -0.31112,  -0.84237,  -0.71091,   0.45728,  -0.71799,   0.93750,  -0.79978,   0.34875,  -0.10365
   0.43057,  -0.10042,   0.58158,  -0.24667,   0.23805,  -0.07969,   0.64735,  -0.40314,   0.23948,  -0.06703
  -0.19224,  -0.80038,   0.07440,   0.21239,   0.16431,  -0.86717,  -0.00769,   0.58893,   0.11956,   0.93750
  -0.57480,   0.92705,   0.09043,  -0.87409,  -0.76092,   0.93750,  -0.72212,  -0.86735,   0.86003,  -0.32174
   0.02769,  -0.68148,   0.09590,   0.93750,   0.93750,  -0.93750,   0.93750,   0.58192,   0.93750,   0.31962
  -0.51767,   0.93750,  -0.38283,  -0.51705,  -0.11160,   0.23493,   0.08777,  -0.03558,  -0.47870,  -0.93750
   0.93750,   0.93750,  -0.23913,  -0.87524,  -0.93750,   0.31560,   0.74666,   0.78885,  -0.15028,   0.93750
  -0.93750,   0.70539,   0.43550,   0.24592,   0.04907,   0.38512,   0.34684,  -0.15112,   0.00972,  -0.92318
  -0.81505,  -0.73636,  -0.59758,  -0.00605,   0.41783,  -0.38440,   0.30105,  -0.35384,   0.04454,   0.93750
  -0.18730,  -0.93750,   0.31566,   0.93750,   0.87731,   0.93750,  -0.81641,  -0.81050,   0.47303,  -0.75740
  -0.20711,   0.65852,  -0.10540,  -0.26470,   0.73289,   0.08245,   0.02559,   0.18916,   0.13454,  -0.00242
   0.48968,  -0.35090,  -0.39412,  -0.68083,   0.87529,   0.87689,  -0.70575,   0.28138,  -0.58999,  -0.81052
   0.93750,  -0.42880,   0.17948,  -0.76279,   0.87205,   0.54546,   0.93750,   0.76316,  -0.37661,   0.93750
   0.93750,  -0.67598,  -0.87064,  -0.75601,  -0.86469,   0.04036,  -0.80683,   0.74854,  -0.28900,  -0.62900
   0.53864,   0.11966,  -0.19764,  -0.29707,   0.60084,  -0.26011,  -0.55951,   0.09470,   0.46485,   0.20381
   0.67486,  -0.11620,   0.93750,  -0.93750,   0.56496,  -0.80318,   0.29359,   0.33461,   0.16445,  -0.61553
   0.82681,   0.66877,  -0.51936,   0.05784,   0.68369,   0.68761,  -0.59422,  -0.08794,  -0.80152,  -0.56678
   0.43918,   0.22599,   0.19213,   0.31418,   0.83545,  -0.29541,  -0.28851,  -0.54092,  -0.21168,   0.16739
   0.05829,  -0.83148,   0.25094,  -0.10427,   0.26071,   0.00451,  -0.14401,   0.03279,   0.35917,   0.65994
  -0.59425,   0.42294,   0.61383,  -0.10946,   0.80547,   0.23850,  -0.77045,   0.71135,  -0.37371,   0.64161
   0.93750,  -0.17005,   0.88096,  -0.05022,   0.88484,   0.87332,  -0.52955,  -0.76815,   0.80841,  -0.92788
  -0.36002,  -0.93750,   0.93750,   0.93750,   0.06381,  -0.87968,   0.29256,   0.93750,   0.31097,  -0.87347
  -0.87040,  -0.50249,  -0.15789,   0.93427,  -0.52101,  -0.73685,   0.11951,  -0.46050,   0.19898,  -0.41974
   0.05879,   0.30124,  -0.41337,  -0.18620,   0.93750,  -0.81787,   0.76835,   0.12127,   0.42766,   0.17344
   0.05310,  -0.52689,   0.09561,  -0.87348,  -0.48247,   0.93750,   0.69473,   0.20043,   0.22240,   0.46655
   0.49644,   0.06003,  -0.24034,  -0.83504,  -0.54646,   0.93750,  -0.07356,  -0.72914,   0.23027,  -0.05110
   0.00503,   0.03416,  -0.89782,  -0.90923,   0.93750,  -0.47816,   0.16927,   0.93750,   0.39624,   0.01991
   0.40938,  -0.87320,  -0.80856,  -0.41281,   0.07387,  -0.93750,  -0.60186,  -0.85283,  -0.87360,  -0.87710
   0.93750,  -0.49243,  -0.87676,  -0.64078,  -0.30765,  -0.93750,  -0.22396,  -0.33667,  -0.31925,   0.17680
  -0.47422,   0.04663,   0.93750,   0.93750,   0.83541,   0.89280,  -0.93750,   0.38447,   0.07948,  -0.50542
  -0.04922,   0.58818,  -0.74602,  -0.71171,  -0.28657,   0.91193,  -0.93345,  -0.81096,   0.93750,   0.42953
   0.39649,   0.15938,  -0.38624,  -0.07338,   0.86245,  -0.26006,  -0.05710,  -0.55031,  -0.20130,   0.39770
  -0.28487,   0.21714,   0.87962,   0.93750,   0.45025,  -0.81197,  -0.92305,  -0.81236,   0.43162,  -0.53399
   0.68389,  -0.04531,  -0.53511,   0.69926,  -0.26721,   0.45663,  -0.25492,  -0.02750,   0.08927,  -0.44647
  -0.65029,   0.93750,   0.93750,  -0.07717,   0.80439,  -0.03352,   0.11963,  -0.81087,  -0.15311,  -0.87405
  -0.93700,  -0.84364,  -0.92548,   0.93750,  -0.34406,  -0.82649,  -0.62039,  -0.02935,  -0.26602,  -0.74687
  -0.47265,   0.20869,  -0.43135,   0.74729,  -0.04285,  -0.61839,   0.82573,  -0.06672,   0.52211,   0.14215
   0.06391,   0.20924,   0.73211,  -0.39363,  -0.08133,   0.55912,  -0.07407,   0.10386,   0.41691,   0.24808
   0.16193,   0.68855,   0.56640,  -0.01626,   0.91725,  -0.51605,  -0.10841,   0.86401,   0.50441,  -0.53378
  -0.70790,   0.93750,  -0.22371,  -0.76137,   0.19808,   0.14917,  -0.50673,   0.30768,   0.93750,  -0.80061
   0.80705,   0.51962,  -0.73910,   0.87395,   0.39517,  -0.56121,  -0.14568,   0.80429,  -0.87399,  -0.83119
  -0.89038,  -0.06368,   0.76747,   0.93222,  -0.85065,  -0.81530,   0.86832,  -0.11319,   0.58208,  -0.04625
  -0.75597,  -0.24069,   0.84727,   0.87443,   0.85282,   0.92356,   0.29357,  -0.28543,   0.93750,  -0.81337
  -0.26132,  -0.73814,   0.87723,  -0.63907,   0.80489,  -0.07568,  -0.23189,   0.79861,   0.86101,  -0.81401
   0.73019,  -0.34896,   0.14017,   0.53609,  -0.93750,   0.80563,   0.76751,   0.68893,  -0.80461,   0.81050
   0.54023,   0.85444,   0.36226,   0.23843,   0.18950,  -0.25100,  -0.01430,   0.05185,  -0.38213,  -0.78548
   0.86470,  -0.26644,  -0.74828,   0.19723,   0.26040,   0.93750,  -0.93750,   0.37329,  -0.43522,  -0.74157
  -0.78572,  -0.42690,  -0.13424,  -0.28875,  -0.69082,  -0.09233,  -0.31695,   0.65744,   0.93750,  -0.81375
  -0.47017,  -0.02494,  -0.91893,   0.92974,  -0.72462,   0.80522,  -0.26801,  -0.54896,  -0.93750,   0.22212
  -0.87947,  -0.10095,  -0.61802,   0.93750,   0.03307,  -0.48688,  -0.71738,   0.02218,  -0.83638,  -0.93750
  -0.28042,   0.23986,  -0.90405,  -0.52971,   0.81430,  -0.74740,   0.11026,   0.93589,  -0.03884,  -0.54307
  -0.76048,  -0.93750,  -0.93750,  -0.53193,   0.73486,  -0.57638,  -0.87607,  -0.87940,  -0.69439,  -0.48141
   0.70786,   0.36230,  -0.09920,   0.88333,   0.00568,  -0.36319,  -0.25617,   0.19406,   0.00944,   0.55869
   0.08299,  -0.72413,  -0.87882,  -0.05319,  -0.03578,   0.88535,   0.82802,   0.14990,   0.07150,   0.07477
   0.38455,  -0.72875,   0.76178,  -0.75381,  -0.68271,   0.60412,   0.36760,   0.46600,   0.17468,  -0.16986
  -0.59197,   0.55369,  -0.79529,   0.93750,  -0.59721,   0.57751,  -0.93750,  -0.16434,  -0.06825,  -0.81490
  -0.78681,   0.01683,  -0.61849,   0.51926,  -0.80906,   0.93750,  -0.33142,  -0.90474,  -0.44294,  -0.41636
   0.93750,  -0.79517,  -0.82542,   0.70610,  -0.93750,  -0.60058,   0.77570,   0.84358,   0.28006,  -0.93750
   0.58372,  -0.75543,   0.56478,   0.76550,  -0.61565,  -0.88580,   0.86997,   0.21810,  -0.41386,   0.51854
   0.17010,  -0.80961,   0.62386,   0.06079,  -0.70365,  -0.83667,  -0.62786,   0.24650,  -0.83656,  -0.93750
   0.18112,  -0.93750,   0.93750,  -0.81720,   0.47515,   0.93750,  -0.63378,   0.57941,  -0.48377,   0.93750
   0.43763,   0.24804,   0.34430,  -0.28617,   0.39253,  -0.53170,   0.14497,   0.38348,   0.20284,  -0.48496
   0.46980,  -0.81633,  -0.30349,   0.88118,   0.93750,   0.47076,   0.93750,   0.32803,   0.25905,   0.60080
  -0.76132,  -0.01535,   0.93750,  -0.81329,  -0.75902,   0.77532,  -0.85604,   0.15255,   0.07682,  -0.30817
  -0.29082,   0.68686,  -0.27998,  -0.93750,  -0.42424,   0.93750,  -0.09999,   0.86197,   0.43773,  -0.60541
  -0.48453,   0.03737,  -0.15985,   0.93750,   0.93750,  -0.87795,  -0.68430,  -0.76691,   0.07215,  -0.68421
   0.93750,   0.55331,  -0.58969,   0.34890,   0.74508,   0.86646,   0.63642,  -0.49348,  -0.61343,  -0.27446
   0.57292,   0.07158,   0.83647,   0.93750,  -0.93554,   0.65534,   0.58982,  -0.93750,   0.09927,   0.25920
  -0.37624,  -0.66529,   0.26768,   0.33670,  -0.04075,   0.04429,   0.06902,   0.42980,   0.92144,  -0.52749
   0.93750,   0.50256,   0.08304,   0.16139,   0.31445,   0.24409,   0.17300,   0.10435,  -0.87310,  -0.93750
   0.42243,   0.15599,  -0.86220,  -0.66346,  -0.33400,  -0.61636,   0.93750,   0.41088,   0.13457,   0.14905
   0.05017,   0.23030,  -0.69209,   0.81326,   0.44601,  -0.74436,   0.75848,   0.82438,   0.93750,   0.68173
   0.86615,  -0.70008,   0.83369,   0.93750,  -0.93750,   0.18527,  -0.26119,  -0.47891,   0.85144,   0.93750
  -0.75495,  -0.70140,   0.09084,   0.87344,  -0.47612,  -0.80574,  -0.83664,   0.78213,   0.44180,  -0.41792
   0.16320,   0.79789,  -0.20639,   0.81817,  -0.25177,  -0.35530,   0.38010,   0.77299,  -0.93750,   0.31283
  -0.83326,   0.87300,  -0.48725,   0.31476,   0.68368,  -0.65652,  -0.87338,   0.80689,   0.17901,  -0.02276
  -0.60843,   0.58205,  -0.27964,  -0.75911,  -0.36390,   0.67149,   0.44218,   0.65466,   0.45326,   0.68822
  -0.93750,  -0.78447,   0.68628,  -0.93750,   0.62819,   0.64806,   0.93750,   0.87208,   0.93750,   0.93750
   0.74194,  -0.08102,   0.01749,  -0.13008,  -0.68479,   0.77230,   0.48915,   0.35971,  -0.58925,   0.50677
  -0.47317,   0.69459,  -0.68735,   0.93750,   0.40088,  -0.57727,  -0.12438,   0.41762,  -0.40296,   0.87068
  -0.59509,  -0.87046,   0.64977,  -0.68099,  -0.22405,   0.40693,  -0.68446,  -0.68790,   0.89692,  -0.62233
  -0.44001,  -0.01041,   0.87332,  -0.42452,  -0.60725,  -0.23483,  -0.11176,   0.46622,   0.14077,   0.02006
  -0.87813,   0.21185,  -0.25948,  -0.46551,  -0.93750,   0.93750,  -0.23753,   0.30157,   0.51454,  -0.93750
   0.26312,   0.93750,   0.03747,  -0.87716,  -0.51910,  -0.36068,   0.34497,  -0.93750,   0.87400,   0.93750
   0.23863,   0.64178,  -0.09710,   0.10672,   0.30971,  -0.93750,  -0.67693,   0.88002,  -0.87208,  -0.67439
   0.35750,   0.23475,  -0.48787,  -0.78034,  -0.89689,   0.33808,   0.93750,   0.78009,  -0.56957,   0.02788
  -0.05087,   0.82754,   0.20248,   0.07023,   0.13488,   0.63236,  -0.02147,  -0.61259,   0.17055,   0.88172
  -0.88421,   0.85457,   0.33209,  -0.93750,  -0.07798,  -0.20658,   0.66131,  -0.64671,  -0.92570,   0.93750
   0.29228,   0.03402,   0.26267,  -0.39835,  -0.18815,   0.70629,   0.16665,  -0.30925,  -0.02970,  -0.01170
   0.52213,   0.32085,  -0.45416,   0.88103,   0.86987,  -0.68242,  -0.85909,  -0.50465,   0.93750,  -0.67500
  -0.60581,  -0.41579,  -0.77176,  -0.93750,   0.18554,   0.93750,  -0.64642,  -0.93750,   0.81493,  -0.09558
  -0.86700,   0.81604,  -0.70957,   0.93750,  -0.82047,   0.12233,   0.93750,   0.64024,   0.46127,  -0.50380
   0.93750,   0.71403,  -0.46058,  -0.46248,  -0.63098,   0.34659,   0.93750,   0.93750,   0.93750,  -0.00233
  -0.05932,  -0.19817,  -0.07312,  -0.76789,   0.35852,   0.93750,  -0.04089,   0.23125,   0.07786,   0.39796
  -0.89092,   0.93750,  -0.50039,  -0.74184,  -0.44677,  -0.81268,  -0.93750,  -0.42166,   0.93750,   0.92751
  -0.33917,  -0.11077,   0.20208,   0.55993,   0.03966,  -0.45760,  -0.52361,   0.55115,  -0.26216,   0.07322
   0.21085,  -0.44303,   0.42717,   0.04135,   0.86323,  -0.30218,  -0.64727,  -0.11862,   0.37644,   0.05365
   0.28593,   0.43857,  -0.54055,  -0.77858,  -0.93381,  -0.86626,   0.19954,   0.93750,   0.80208,  -0.30780
   0.87509,   0.19720,  -0.80044,   0.16071,  -0.20039,   0.03636,   0.69846,  -0.71167,  -0.17795,  -0.35787
  -0.08116,   0.65260,   0.82487,  -0.18068,  -0.79253,  -0.51161,   0.04799,   0.80343,  -0.11683,   0.04716
   0.31812,  -0.93750,  -0.51530,   0.79115,  -0.22382,  -0.27677,  -0.80238,   0.13063,   0.32513,   0.93750
  -0.67981,   0.16252,   0.17538,   0.26681,   0.16523,   0.34831,   0.48381,  -0.31367,   0.32470,   0.93122
   0.91669,   0.93750,   0.81019,  -0.07312,   0.49432,  -0.61038,  -0.38926,   0.05741,   0.53124,  -0.81769
   0.28690,  -0.93750,  -0.33890,   0.93750,   0.88757,  -0.87314,   0.65115,   0.22511,   0.66358,  -0.81822
   0.00143,   0.22858,  -0.09537,  -0.93750,   0.35567,   0.93750,   0.08427,   0.10761,  -0.10529,  -0.06744
  -0.58964,  -0.34552,   0.52809,   0.75720,   0.50374,  -0.82023,   0.24163,  -0.25350,   0.20606,  -0.38297
   0.02021,  -0.76681,   0.87178,  -0.88093,   0.71132,  -0.63930,  -0.66064,   0.87863,   0.44345,   0.02870
  -0.93750,  -0.50430,  -0.92802,  -0.93750,   0.38708,   0.33130,  -0.53746,  -0.37596,   0.52683,   0.93750
   0.87187,   0.93750,   0.35727,   0.07106,  -0.25149,   0.35879,   0.29398,  -0.75045,   0.44712,  -0.92552
  -0.60080,   0.75251,  -0.36890,   0.66162,  -0.35257,   0.86512,  -0.61161,  -0.24807,   0.84758,  -0.42143
  -0.15699,   0.06218,  -0.25411,   0.75319,   0.40851,  -0.36074,  -0.56382,  -0.11284,   0.20667,  -0.93750
  -0.46550,  -0.22644,   0.37065,   0.04978,  -0.30455,   0.32771,  -0.21065,   0.88741,  -0.22325,  -0.56752
  -0.01349,   0.22403,   0.54662,  -0.56899,   0.39336,   0.81635,  -0.28893,  -0.14767,  -0.20574,   0.23070
  -0.69869,   0.93750,   0.31980,  -0.86774,   0.51403,  -0.00485,   0.75920,  -0.93750,  -0.67728,   0.93750
   0.72434,  -0.01141,  -0.87288,   0.50828,  -0.73561,  -0.70239,   0.92042,  -0.81295,   0.69149,   0.16260
   0.26596,  -0.03066,   0.40919,  -0.92581,  -0.00623,   0.93750,   0.04228,  -0.89436,  -0.11833,   0.04260
  -0.88047,   0.04304,   0.93665,  -0.72434,  -0.23116,  -0.20355,  -0.12715,   0.11857,   0.25830,  -0.26592
   0.81246,   0.93750,  -0.93750,  -0.92223,  -0.77546,   0.63037,  -0.93750,  -0.26167,  -0.93750,   0.04413
   0.08126,   0.59625,   0.56376,  -0.13040,   0.46031,  -0.62225,   0.11190,   0.55720,  -0.09204,  -0.49006
  -0.07875,   0.37347,  -0.15695,  -0.48371,   0.81388,   0.29762,   0.67354,  -0.12221,   0.10436,  -0.28818
   0.93750,  -0.20369,  -0.55047,  -0.41086,   0.43235,  -0.79166,  -0.46123,  -0.09946,  -0.35584,   0.13661
  -0.88041,   0.44127,  -0.75015,  -0.82490,  -0.33948,  -0.01000,  -0.84692,   0.93750,  -0.69023,   0.93750
   0.48957,  -0.20845,   0.09891,  -0.70342,  -0.26142,   0.80274,  -0.22103,   0.56933,  -0.23026,   0.36358
  -0.40490,   0.66412,   0.46742,  -0.18915,   0.12534,   0.73735,   0.09489,  -0.65846,  -0.03307,   0.23782
  -0.86261,  -0.86654,   0.13249,  -0.18426,   0.46507,   0.93750,   0.61523,   0.49775,  -0.93750,  -0.27634
  -0.47110,   0.93750,   0.05076,  -0.20310,   0.01652,   0.26585,   0.43666,  -0.47304,   0.13858,  -0.92168
   0.52188,   0.19332,  -0.79587,   0.93693,   0.48342,  -0.83250,  -0.86853,   0.54329,   0.00986,  -0.43152
   0.18748,  -0.81019,   0.31297,   0.43972,   0.21895,   0.41228,   0.43013,   0.19001,   0.86047,  -0.02460
   0.45922,   0.28502,   0.65156,   0.00133,  -0.53371,   0.81280,   0.10191,   0.74878,   0.34490,  -0.54020
  -0.56293,   0.93750,   0.73188,   0.86812,  -0.38588,   0.09574,   0.88471,  -0.69474,   0.26784,   0.86525
   0.93750,  -0.51765,   0.81174,  -0.46684,  -0.77728,  -0.28517,   0.73138,  -0.65162,   0.37421,   0.30780
   0.58978,   0.90456,  -0.93750,  -0.93750,   0.04771,   0.93750,  -0.93750,   0.27293,   0.59649,  -0.93750
   0.53587,  -0.51652,   0.86639,  -0.45843,   0.81624,  -0.50517,  -0.63570,   0.08776,  -0.25579,   0.75332
   0.63323,  -0.20852,   0.79241,  -0.36029,  -0.09505,   0.14070,  -0.43566,  -0.72691,  -0.40582,  -0.18065
   0.14504,   0.93750,   0.86959,  -0.32994,   0.85248,  -0.67552,  -0.72717,  -0.28435,  -0.87368,   0.01427
  -0.75389,  -0.80052,   0.67765,  -0.87646,  -0.85880,   0.42045,  -0.93750,  -0.55271,  -0.92136,   0.40084
   0.93750,  -0.08289,   0.24377,  -0.40770,  -0.52570,  -0.83010,   0.55644,  -0.33702,  -0.63094,   0.13741
   0.11469,  -0.00484,   0.93018,   0.93750,   0.87045,   0.40075,   0.72934,  -0.40605,  -0.03681,   0.38421
  -0.01935,  -0.18574,   0.36298,  -0.80675,  -0.93750,   0.93750,   0.01189,  -0.51283,   0.46735,   0.63314
   0.42344,  -0.26114,  -0.55050,   0.80050,  -0.89205,   0.86848,   0.17292,  -0.72784,  -0.01202,  -0.15784
   0.93750,  -0.10540,  -0.81777,  -0.68934,  -0.72659,  -0.16829,  -0.40574,  -0.67260,   0.78433,   0.88177
   0.10221,  -0.24515,  -0.34350,  -0.13006,  -0.37074,   0.80884,   0.00787,   0.92320,  -0.21945,   0.54235
   0.86507,  -0.87688,   0.84068,   0.51351,   0.87292,   0.63189,  -0.80902,  -0.26342,   0.33050,  -0.50241
   0.39531,  -0.75670,  -0.85584,   0.88236,   0.40234,   0.93750,   0.62604,  -0.36790,  -0.88871,  -0.17619
   0.17615,  -0.73580,   0.63213,  -0.80995,  -0.78564,   0.93155,   0.52945,   0.86833,  -0.19599,  -0.13372
   0.48821,   0.86796,  -0.49106,  -0.26992,  -0.64189,   0.53601,   0.93750,   0.50630,  -0.39655,   0.09871
   0.35752,   0.93750,  -0.59572,   0.50436,   0.86828,  -0.81316,  -0.93750,  -0.48101,   0.39953,   0.87353
   0.22619,  -0.85555,   0.12102,  -0.93750,  -0.34458,   0.93750,   0.12038,   0.32886,  -0.17791,  -0.64575
   0.00565,  -0.06121,  -0.46168,  -0.59980,  -0.08031,   0.60983,   0.47189,   0.00051,   0.13843,  -0.06154
   0.22389,  -0.23104,   0.93750,  -0.73001,  -0.93657,   0.06153,  -0.67581,   0.67293,   0.64308,  -0.71768
   0.55446,  -0.76018,   0.69152,   0.20419,   0.87020,  -0.45590,  -0.82124,  -0.64014,  -0.09442,   0.26303
   0.68997,  -0.11437,   0.71300,  -0.70437,  -0.81936,   0.93110,   0.26247,  -0.15768,   0.12762,  -0.23395
   0.86245,  -0.93750,  -0.11416,  -0.55995,   0.93750,  -0.87738,   0.80490,   0.93750,  -0.60825,  -0.79524
   0.84059,   0.88731,   0.93750,  -0.93750,  -0.74256,   0.70672,   0.87385,  -0.07878,  -0.14247,   0.55629
   0.17674,   0.63615,   0.13412,   0.80958,  -0.75204,  -0.54265,   0.93750,  -0.28850,  -0.15923,  -0.04652
   0.06459,  -0.23879,  -0.82337,  -0.05888,   0.07029,   0.93142,   0.04617,  -0.70063,   0.02857,   0.42566
  -0.93750,  -0.93750,   0.16831,   0.57334,  -0.74221,   0.74561,  -0.88025,   0.93750,  -0.19718,  -0.75572
   0.87747,  -0.87560,  -0.81845,   0.35450,   0.93750,  -0.86894,  -0.74151,   0.56571,   0.33597,   0.93750
  -0.69711,   0.64387,  -0.27617,  -0.43732,  -0.66996,  -0.88666,  -0.43210,   0.93750,  -0.17645,  -0.43921
   0.38412,   0.93750,  -0.12543,  -0.86884,   0.93750,  -0.05856,  -0.93750,   0.87233,   0.42544,   0.63517
  -0.39310,   0.13258,  -0.71931,   0.49338,   0.70033,   0.75862,   0.06473,   0.55527,   0.21961,  -0.40479
   0.64003,  -0.35925,   0.93750,  -0.00743,   0.31202,   0.34509,  -0.37803,  -0.87294,  -0.02351,  -0.87038
   0.38665,   0.09990,   0.57166,   0.64530,  -0.58336,  -0.42381,  -0.24400,  -0.65981,   0.38728,   0.70254
  -0.81434,  -0.63965,   0.33746,   0.22164,   0.20814,  -0.00231,   0.16024,   0.47733,   0.09209,   0.78315
   0.39286,   0.05317,   0.72383,  -0.01776,   0.26469,   0.28178,   0.29988,  -0.51392,   0.09978,  -0.07357
   0.43267,   0.73284,   0.77154,  -0.25977,   0.51929,   0.51340,   0.61378,  -0.93750,   0.88160,  -0.66657
   0.93750,  -0.62302,   0.93750,  -0.14015,  -0.88366,  -0.57086,  -0.25245,   0.00220,  -0.46386,  -0.53679
  -0.86472,   0.28908,   0.75063,   0.11462,   0.00850,   0.12129,  -0.80831,  -0.50951,  -0.82993,  -0.05412
   0.44928,   0.45733,  -0.56145,  -0.01565,  -0.86946,   0.63999,   0.13138,  -0.61238,   0.56237,  -0.51879
  -0.64707,   0.93750,   0.51472,  -0.87872,  -0.17287,  -0.87114,   0.54711,  -0.74567,   0.28864,  -0.76808
   0.75753,   0.20232,  -0.93750,  -0.05058,   0.69456,   0.22868,  -0.20001,  -0.57170,   0.36815,   0.02470
   0.89851,   0.57187,  -0.80163,  -0.60000,  -0.81553,   0.38250,  -0.79949,  -0.48791,   0.43307,  -0.69870
   0.60839,  -0.19583,  -0.34557,   0.79654,  -0.84211,   0.85923,  -0.24579,  -0.35246,   0.16922,   0.25362
  -0.72900,   0.02637,  -0.80137,   0.22993,   0.04295,   0.12226,  -0.64829,   0.16625,   0.93750,  -0.01460
   0.74750,   0.05663,  -0.87027,  -0.81414,   0.14424,   0.82690,   0.40444,  -0.25125,   0.05711,   0.12617
   0.88762,   0.43785,   0.92696,  -0.86085,  -0.76963,   0.53691,  -0.67864,  -0.33921,   0.93750,  -0.76519
   0.21282,   0.57951,  -0.38349,  -0.93750,   0.32434,   0.23480,  -0.04527,   0.55318,  -0.00166,  -0.68490
  -0.92128,   0.01814,  -0.93750,  -0.37887,   0.93750,  -0.50001,   0.06251,  -0.93750,  -0.44023,  -0.50953
   0.93750,  -0.79039,   0.80783,  -0.32459,  -0.87703,  -0.19046,  -0.13726,  -0.65528,  -0.75436,  -0.81939
   0.63768,  -0.10063,   0.93750,  -0.16451,   0.21436,  -0.40062,  -0.93014,   0.46213,   0.36026,   0.28030
  -0.60618,   0.66700,   0.81185,  -0.43417,   0.64503,   0.54963,   0.21540,   0.03320,   0.93750,  -0.33925
   0.18340,   0.22872,  -0.04422,  -0.59848,  -0.58529,   0.89837,  -0.14571,  -0.38153,  -0.01324,   0.09832
  -0.33956,   0.80465,   0.40794,  -0.38090,   0.00557,   0.46742,  -0.25002,  -0.24410,   0.26810,  -0.88352
  -0.48385,   0.83096,  -0.87560,  -0.68719,  -0.93750,  -0.49406,   0.42816,   0.19537,   0.31975,  -0.61164
   0.58267,   0.31593,  -0.55858,   0.80866,   0.70122,  -0.93750,   0.00864,   0.30789,   0.93750,  -0.49207
  -0.03265,   0.13665,   0.04361,  -0.15968,   0.72590,  -0.35282,   0.61588,   0.49608,  -0.51360,   0.57758
   0.09786,  -0.87208,   0.10117,   0.54217,  -0.93750,   0.93750,  -0.93750,  -0.93750,  -0.86675,  -0.87695
   0.23214,   0.14473,   0.46938,  -0.93750,   0.93750,   0.92973,   0.36655,  -0.55249,   0.08002,   0.05242
   0.63402,   0.10486,  -0.37161,  -0.55348,  -0.61391,   0.59849,  -0.32069,  -0.39782,   0.21415,   0.50964
   0.93750,  -0.38352,   0.43932,  -0.65492,   0.41894,   0.80221,   0.29766,  -0.09179,  -0.81967,   0.59957
  -0.00216,   0.38469,   0.05951,   0.30151,   0.79833,  -0.46361,  -0.72971,   0.00208,   0.01482,   0.45881
   0.48699,  -0.06111,  -0.67830,   0.93750,  -0.87417,   0.34135,   0.93750,  -0.93750,   0.59619,   0.47436
   0.08540,   0.45497,  -0.10950,   0.87581,   0.17258,  -0.82558,  -0.76809,  -0.72621,  -0.59738,   0.02711
  -0.74932,   0.10344,   0.10612,   0.73032,   0.48094,   0.58696,  -0.44336,   0.45183,   0.01871,   0.17751
  -0.24411,   0.01367,   0.93750,   0.67910,   0.02283,  -0.93750,  -0.57696,   0.16709,   0.00473,  -0.10539
  -0.81628,  -0.11678,   0.48239,   0.61429,   0.00629,   0.79903,   0.93750,   0.65771,  -0.71712,  -0.17232
  -0.51641,  -0.38376,   0.70415,  -0.88548,   0.13525,  -0.64009,  -0.54710,   0.93750,  -0.87220,   0.44828
   0.73853,   0.57432,  -0.43762,   0.68572,   0.62327,   0.04364,  -0.45394,  -0.66813,  -0.63890,   0.86922
   0.61303,   0.08849,   0.21404,   0.73202,  -0.48816,  -0.54016,  -0.25154,   0.68192,  -0.56577,   0.00645
   0.16219,   0.26682,  -0.58178,  -0.56764,  -0.43948,   0.79962,   0.29009,   0.20575,   0.12730,  -0.18008
  -0.16580,   0.02747,  -0.26293,   0.93750,   0.39997,  -0.57934,  -0.47171,   0.53252,  -0.24145,  -0.00888
  -0.60293,   0.93750,  -0.48648,   0.54297,   0.86144,  -0.68582,  -0.32057,  -0.42210,  -0.57662,   0.93750
  -0.93750,  -0.42344,   0.93750,   0.74036,   0.93750,   0.87719,  -0.92727,   0.54228,   0.46052,   0.21747
   0.38392,  -0.93750,   0.64931,  -0.44847,  -0.31587,   0.43451,   0.31602,   0.20634,  -0.25959,   0.93750
  -0.07197,   0.83042,   0.93750,  -0.79957,   0.49954,  -0.52253,  -0.80988,  -0.23450,  -0.86936,   0.82684
  -0.16494,   0.03627,  -0.64219,   0.43706,   0.93750,  -0.07301,  -0.34832,  -0.33390,   0.36813,   0.14052
   0.19496,  -0.87232,  -0.54635,  -0.03037,   0.93750,  -0.51542,  -0.54925,  -0.64461,   0.87723,  -0.06366
   0.09123,   0.10863,   0.38181,   0.80508,  -0.53954,  -0.15115,  -0.48507,   0.31504,  -0.17127,  -0.18436
   0.93750,   0.17132,   0.74250,  -0.93750,   0.86343,   0.47303,   0.80878,   0.24809,   0.60475,   0.93750
  -0.13678,   0.12607,  -0.73887,  -0.55905,   0.67904,  -0.17825,   0.90340,  -0.61880,   0.69091,   0.59960
  -0.00640,  -0.57530,  -0.80508,  -0.87033,   0.93750,   0.93750,  -0.67648,   0.43379,   0.37411,  -0.39775
  -0.20769,  -0.39388,   0.93750,  -0.55450,  -0.40969,  -0.11472,  -0.55969,  -0.87100,   0.35492,  -0.25267
   0.20253,  -0.02236,  -0.20373,  -0.86825,   0.03979,   0.81064,   0.26546,  -0.38401,  -0.04484,  -0.03759
   0.15844,  -0.13815,   0.25629,  -0.49571,   0.21113,  -0.40420,   0.06720,  -0.10887,   0.10232,   0.49062
  -0.86256,   0.86870,   0.66135,   0.77201,  -0.44079,  -0.38687,  -0.18817,   0.72809,  -0.89743,   0.93750
   0.06390,   0.01972,  -0.06278,  -0.19578,  -0.93657,   0.85624,   0.06969,   0.75743,  -0.28951,  -0.16318
  -0.85992,   0.86345,  -0.20289,   0.87201,  -0.65588,   0.36751,  -0.46881,  -0.55081,   0.56404,  -0.60212
   0.93750,  -0.62355,   0.93750,   0.19837,  -0.93750,  -0.27487,  -0.93750,  -0.00375,  -0.76293,  -0.93750
  -0.27650,  -0.20563,  -0.14839,  -0.63569,   0.01087,   0.01865,   0.00955,  -0.32394,   0.93750,   0.46862
  -0.87348,   0.67560,   0.19625,  -0.93750,   0.08305,   0.56934,   0.93750,  -0.72680,   0.93750,  -0.84216
  -0.78866,  -0.17858,  -0.02569,   0.88594,  -0.85372,  -0.87616,  -0.29081,   0.31538,   0.22459,  -0.59284
   0.21221,  -0.50541,   0.67471,  -0.35424,  -0.61120,   0.03373,   0.50323,  -0.77106,  -0.54919,   0.51235
  -0.62460,   0.07404,   0.74623,   0.24024,   0.11023,  -0.31934,   0.17999,   0.72416,  -0.31078,   0.08669
   0.93750,   0.33585,  -0.49532,  -0.16679,  -0.28837,  -0.24749,   0.93750,   0.22277,  -0.78075,  -0.28376
  -0.54273,  -0.12643,   0.68504,   0.81983,   0.47754,   0.35659,   0.27889,   0.35829,  -0.63400,   0.88311
   0.12971,   0.01419,   0.00649,  -0.65493,  -0.33263,  -0.10314,   0.93750,   0.05630,   0.21332,   0.41760
   0.21713,   0.62647,  -0.36887,   0.02159,   0.07566,   0.36182,   0.63144,  -0.61781,   0.33959,   0.00780
   0.38133,  -0.39009,   0.16424,  -0.87421,   0.93750,  -0.87963,  -0.16716,  -0.78989,  -0.57055,   0.82843
   0.10221,  -0.11509,   0.10017,  -0.66523,  -0.06801,   0.93750,  -0.32350,  -0.32391,   0.06725,   0.10549
  -0.88019,  -0.08885,  -0.03971,  -0.50695,   0.81148,  -0.93750,   0.15348,  -0.56360,  -0.12571,   0.79610
  -0.13930,   0.33714,   0.17719,  -0.27241,   0.56575,   0.68430,   0.70705,   0.07328,  -0.07893,  -0.09316
  -0.09629,  -0.44701,  -0.87458,  -0.08407,   0.82294,   0.74075,   0.32518,   0.60650,  -0.60736,  -0.34377
  -0.33767,  -0.93750,  -0.93750,  -0.87263,  -0.81743,   0.93750,   0.74323,  -0.93750,   0.24702,  -0.93750
  -0.68035,  -0.81318,   0.31738,   0.58568,  -0.93750,   0.93750,  -0.93289,  -0.56182,  -0.52684,   0.50272
   0.67571,  -0.24563,  -0.57177,  -0.60895,   0.93750,   0.05145,  -0.70414,   0.61574,  -0.27524,   0.30243
  -0.42877,  -0.08930,  -0.74838,  -0.61071,  -0.31814,   0.44672,  -0.42798,   0.88014,   0.06610,   0.87414
   0.06485,  -0.34509,   0.93473,  -0.74906,  -0.33692,  -0.87238,  -0.87612,   0.81257,   0.17888,  -0.33251
   0.16469,  -0.81972,  -0.80629,  -0.81840,   0.88189,   0.04982,   0.05617,  -0.53124,  -0.29919,   0.93750
   0.51375,   0.93750,   0.02985,   0.40839,  -0.03230,  -0.45535,  -0.46113,   0.31935,   0.93750,  -0.93750
  -0.05867,   0.05610,  -0.59017,   0.66744,  -0.32697,  -0.00880,  -0.24722,  -0.18265,   0.55003,   0.38586
   0.85476,  -0.88406,  -0.54433,  -0.42265,   0.60465,   0.16770,   0.29174,  -0.52866,   0.45594,   0.93750
  -0.67758,   0.93750,  -0.82275,  -0.64477,  -0.15061,   0.74747,  -0.10836,   0.13895,  -0.79261,   0.93750
   0.45231,   0.11790,   0.22988,   0.81749,   0.64629,  -0.40538,  -0.33369,  -0.74090,  -0.10447,  -0.14104
  -0.78977,   0.00159,  -0.93750,   0.93596,  -0.93094,   0.93750,   0.93750,   0.64696,  -0.29203,   0.24865
  -0.21503,  -0.04497,  -0.81499,   0.88170,  -0.08751,  -0.68823,  -0.87535,   0.30863,   0.93750,   0.06676
  -0.75192,   0.42868,   0.93750,  -0.67588,  -0.87324,   0.53253,   0.93750,   0.87161,  -0.33831,  -0.01671
   0.20598,  -0.02006,  -0.82528,  -0.88558,   0.23269,   0.31029,  -0.62121,   0.34979,  -0.69845,   0.21562
  -0.49522,  -0.03030,   0.04148,  -0.48981,   0.93750,   0.64867,  -0.21009,  -0.88483,  -0.02517,  -0.03791
  -0.37894,  -0.40887,   0.08917,   0.52549,   0.10193,  -0.87946,   0.93750,  -0.14614,   0.03232,   0.39338
   0.61226,  -0.16078,  -0.82248,   0.93750,   0.48434,   0.30525,  -0.46054,  -0.72521,  -0.50739,  -0.63734
   0.87935,  -0.29898,  -0.07426,   0.76723,  -0.81216,  -0.48044,   0.93750,  -0.90452,  -0.46969,  -0.02809
   0.41671,  -0.50755,   0.06953,  -0.64640,   0.01758,   0.31461,  -0.32644,  -0.47424,  -0.03661,   0.66299
  -0.65931,  -0.82950,   0.69902,   0.93750,  -0.04936,   0.13256,   0.69833,   0.17685,   0.31569,   0.83654
  -0.52340,  -0.63912,  -0.51278,  -0.46207,  -0.25191,  -0.44873,  -0.71134,   0.93750,  -0.65540,   0.11593
   0.46849,  -0.92441,   0.32933,  -0.76691,  -0.08673,   0.33230,   0.17805,   0.54019,  -0.09758,   0.93750
   0.56357,  -0.93750,   0.93750,  -0.93750,   0.04784,  -0.93750,   0.74958,   0.82829,   0.85802,  -0.93750
   0.62751,  -0.84738,   0.93750,  -0.93308,   0.33821,  -0.49460,   0.82341,  -0.30127,   0.14545,  -0.86453
  -0.51270,  -0.42815,  -0.17701,   0.82512,  -0.78132,   0.37589,   0.49387,  -0.87439,  -0.02148,   0.51145
  -0.20895,  -0.82567,   0.58847,   0.93750,  -0.78919,  -0.71429,  -0.31647,   0.93750,   0.00276,  -0.86527
   0.25354,  -0.47861,  -0.31181,  -0.15931,   0.63745,  -0.18248,   0.29438,   0.83439,   0.66055,   0.41125
   0.46145,   0.23087,   0.04602,   0.81056,   0.81394,  -0.58306,   0.92408,  -0.30976,  -0.21980,   0.41685
   0.72405,  -0.21713,   0.38844,   0.93750,   0.41157,   0.26927,   0.63116,   0.86885,   0.88255,   0.62501
  -0.51781,  -0.35391,   0.65721,  -0.37702,  -0.31753,   0.75799,  -0.13066,  -0.20232,   0.04241,   0.08761
  -0.69848,   0.40514,  -0.93414,  -0.62025,  -0.87171,  -0.55991,  -0.06322,   0.93750,  -0.29959,   0.93750
  -0.77782,   0.65545,   0.23875,   0.93750,   0.92910,  -0.88245,   0.05096,  -0.05441,   0.42714,   0.50392
   0.93750,   0.19092,  -0.84376,   0.92500,  -0.69064,  -0.10535,   0.14334,   0.12181,  -0.65927,  -0.42256
  -0.15668,   0.47809,   0.15561,   0.93750,  -0.93750,  -0.87007,  -0.93750,  -0.08456,  -0.75345,   0.88613
  -0.01094,   0.60019,  -0.70435,  -0.65322,   0.53021,   0.31715,   0.88497,  -0.57156,  -0.40103,   0.35144
   0.28195,  -0.88389,  -0.16398,  -0.39977,   0.73452,   0.81788,  -0.01063,  -0.53753,   0.70543,   0.50340
   0.93750,  -0.59362,  -0.02013,   0.39213,  -0.86997,   0.39521,  -0.23663,   0.53716,   0.36832,  -0.62782
  -0.09633,   0.93750,   0.23358,  -0.50225,  -0.22000,   0.60848,  -0.91358,  -0.15994,  -0.80616,  -0.93246
   0.38788,  -0.87943,  -0.90523,  -0.93750,   0.88539,   0.93750,  -0.88003,  -0.42381,  -0.20724,   0.93750
   0.93750,   0.25962,  -0.07347,  -0.78889,  -0.44383,   0.06518,  -0.57900,   0.90569,   0.54031,   0.03051
   0.93750,   0.06451,  -0.93750,   0.93499,  -0.93750,   0.35557,  -0.70030,   0.21630,   0.54889,  -0.14190
  -0.88799,  -0.70785,   0.71824,   0.58615,  -0.68011,  -0.74559,  -0.04750,   0.58787,   0.93750,  -0.34626
  -0.27847,   0.19233,  -0.29453,   0.58092,   0.67033,  -0.61000,  -0.24613,  -0.40801,   0.13475,   0.10320
   0.33902,  -0.81777,   0.68883,  -0.36210,   0.93750,   0.02528,   0.52762,   0.80742,   0.18248,   0.60352
  -0.45080,  -0.12460,   0.85841,  -0.76464,   0.70725,   0.43933,  -0.36389,   0.12612,  -0.05669,  -0.10101
  -0.79292,   0.87630,  -0.88650,   0.65857,   0.81584,  -0.93750,  -0.74811,   0.61547,  -0.78825,   0.86909
   0.45642,  -0.24986,   0.23383,  -0.59965,   0.87645,  -0.07576,  -0.55023,   0.20093,   0.26692,   0.15744
   0.87780,   0.23219,   0.71616,  -0.12983,   0.93750,   0.45764,  -0.62041,   0.91578,  -0.25938,  -0.74985
  -0.32305,  -0.39219,  -0.61768,  -0.55852,   0.93750,   0.46093,  -0.22611,  -0.72955,  -0.30177,  -0.03628
  -0.05614,   0.04628,   0.93205,  -0.08310,  -0.37803,   0.21083,  -0.85119,  -0.09016,   0.03172,   0.27679
   0.48701,   0.64788,   0.55669,  -0.38441,   0.17844,   0.15336,   0.13538,   0.59470,  -0.53261,   0.72017
  -0.38417,   0.14152,   0.03909,   0.87062,  -0.74902,  -0.67455,  -0.58062,  -0.16737,  -0.91885,   0.18147
  -0.41572,  -0.04619,   0.57501,   0.70778,   0.14780,  -0.76611,   0.19186,   0.25352,   0.61020,  -0.14364
  -0.43967,  -0.37335,  -0.62931,  -0.30515,  -0.39278,   0.87247,   0.20544,   0.20295,   0.31747,   0.87721
  -0.23099,  -0.80552,  -0.42886,   0.72765,  -0.62504,  -0.39273,  -0.80840,   0.93750,  -0.51674,   0.66682
   0.82885,  -0.01917,  -0.87239,   0.03806,  -0.93750,   0.80973,   0.37790,   0.93750,  -0.76617,   0.75543
  -0.93750,  -0.87698,   0.13612,   0.00698,   0.76779,  -0.85682,  -0.88108,   0.67326,   0.09967,   0.50154
  -0.48568,  -0.00142,   0.11283,  -0.35522,   0.60924,  -0.77886,  -0.31285,  -0.39135,   0.04132,   0.80386
   0.24088,  -0.68442,   0.27870,   0.80902,   0.87512,   0.87546,  -0.55908,  -0.84395,  -0.17449,  -0.74161
  -0.74315,   0.93750,   0.13807,  -0.01354,   0.59145,  -0.93349,  -0.84453,  -0.82408,  -0.81723,  -0.66420
   0.07883,   0.58964,   0.46535,   0.73158,   0.05169,  -0.73577,  -0.11753,  -0.43927,  -0.19082,  -0.69808
   0.08627,   0.06218,   0.83483,   0.16065,   0.23516,  -0.71789,   0.56816,   0.93750,  -0.07830,   0.36024
   0.01068,   0.09083,   0.14911,  -0.79797,  -0.07958,   0.93300,  -0.51074,  -0.10164,  -0.00163,   0.19270
   0.20134,   0.27169,   0.66590,  -0.88128,  -0.69135,   0.93750,   0.70370,  -0.93750,  -0.88637,  -0.54947
  -0.52549,  -0.05277,   0.12694,   0.42724,  -0.44567,   0.93750,   0.17887,  -0.92892,   0.00040,   0.61327
   0.45810,   0.28919,   0.79434,   0.93750,  -0.45401,  -0.93750,  -0.03050,  -0.13907,  -0.21240,  -0.54056
   0.24739,   0.26285,  -0.82153,  -0.93750,   0.07418,   0.93750,  -0.11961,  -0.81419,   0.26061,   0.08262
   0.86647,   0.93700,   0.24135,  -0.93171,   0.51905,   0.35318,   0.15198,  -0.74604,  -0.09302,  -0.64740
