1_mean,2_mean,3_mean,4_mean,5_mean,6_mean,7_mean,8_mean,1_std,2_std,3_std,4_std,5_std,6_std,7_std,8_std
-0.003549,-0.006970,0.008324,0.001946,0.000189,-0.011177,-0.025485,-0.017673,0.500595,0.634078,0.641453,0.636042,0.652965,0.670879,0.699051,0.639993
-0.014102,-0.016527,0.010978,-0.012520,-0.002182,-0.017706,-0.032077,-0.016203,0.451190,0.585698,0.590115,0.600524,0.613194,0.640354,0.690504,0.636202
-0.016426,-0.022382,0.007258,-0.020778,-0.003079,-0.024265,-0.035514,-0.014557,0.444191,0.559133,0.560856,0.577904,0.584090,0.616285,0.684697,0.633055
-0.015837,-0.028900,0.001801,-0.036548,-0.003624,-0.028969,-0.040250,-0.014610,0.453120,0.543490,0.545561,0.574969,0.566922,0.597369,0.682000,0.631074
-0.014193,-0.029329,-0.004462,-0.045574,-0.005405,-0.032584,-0.043297,-0.014630,0.454578,0.533440,0.535573,0.582473,0.553691,0.583223,0.678910,0.628578
-0.019220,-0.035415,-0.005764,-0.050142,-0.009440,-0.036609,-0.045789,-0.013381,0.466704,0.529051,0.531727,0.586451,0.545321,0.571829,0.678951,0.624186
-0.015812,-0.037195,-0.009324,-0.063100,-0.010730,-0.040705,-0.049913,-0.010776,0.469552,0.527472,0.528753,0.585476,0.539020,0.563843,0.681462,0.620708
-0.016564,-0.039903,-0.010507,-0.067079,-0.012573,-0.044215,-0.055639,-0.007781,0.467414,0.525949,0.527221,0.585156,0.534948,0.556729,0.684827,0.615100
-0.017068,-0.033952,-0.011268,-0.066444,-0.012765,-0.047040,-0.059537,-0.007234,0.473048,0.527386,0.527463,0.582367,0.531574,0.552328,0.682739,0.612337
-0.017421,-0.040383,-0.016504,-0.071423,-0.016459,-0.051223,-0.062203,-0.006388,0.484256,0.529476,0.526115,0.575247,0.532146,0.549110,0.683846,0.611370
-0.014352,-0.039369,-0.018697,-0.076066,-0.019605,-0.052231,-0.065292,-0.005263,0.479454,0.528439,0.527359,0.575179,0.532581,0.546746,0.684957,0.608825
-0.018531,-0.040713,-0.019084,-0.072990,-0.020490,-0.053779,-0.067278,-0.005136,0.486171,0.531445,0.526215,0.578408,0.534967,0.544681,0.685079,0.606835
-0.009007,-0.044407,-0.017017,-0.075340,-0.022230,-0.057490,-0.070126,-0.004572,0.490729,0.532651,0.524151,0.578939,0.536184,0.543739,0.685112,0.604780
-0.013866,-0.046460,-0.019968,-0.081312,-0.023208,-0.061289,-0.069840,-0.004693,0.479071,0.534655,0.523856,0.587292,0.538953,0.543916,0.683361,0.603538
-0.009231,-0.040887,-0.018158,-0.079900,-0.025405,-0.063798,-0.070538,-0.004048,0.482323,0.535373,0.523390,0.588330,0.539379,0.543992,0.684402,0.602505
-0.020405,-0.041004,-0.020932,-0.083174,-0.025922,-0.062925,-0.071836,-0.003200,0.489971,0.534481,0.521803,0.591510,0.541335,0.543746,0.681922,0.599611
-0.011851,-0.043682,-0.021792,-0.086181,-0.027597,-0.066543,-0.073483,-0.002742,0.483029,0.536224,0.522157,0.593170,0.543593,0.544680,0.683687,0.598917
-0.016553,-0.044551,-0.024406,-0.085772,-0.027995,-0.066257,-0.074550,-0.002815,0.484899,0.539130,0.521173,0.597399,0.542594,0.546559,0.683096,0.597707
-0.018102,-0.045589,-0.025039,-0.087882,-0.029637,-0.067008,-0.077296,0.000292,0.487646,0.542039,0.521633,0.603227,0.544651,0.546279,0.684282,0.596811
-0.015587,-0.044282,-0.022397,-0.091067,-0.027981,-0.068667,-0.078239,0.000962,0.483288,0.542753,0.519340,0.597015,0.544192,0.546787,0.683760,0.596823
-0.015082,-0.039782,-0.027753,-0.089338,-0.030117,-0.068166,-0.080137,0.002287,0.487267,0.543750,0.519166,0.600145,0.544058,0.548596,0.683755,0.593718
-0.014280,-0.042711,-0.024141,-0.091250,-0.030173,-0.071118,-0.079562,0.002250,0.486546,0.545559,0.519137,0.594984,0.541548,0.550344,0.686376,0.592410
-0.016333,-0.044239,-0.026132,-0.086341,-0.029827,-0.071278,-0.082208,0.002362,0.494528,0.546530,0.520046,0.588546,0.541711,0.552253,0.687673,0.592990
-0.011968,-0.043364,-0.023872,-0.090074,-0.028527,-0.073001,-0.081868,0.004390,0.499957,0.544598,0.522530,0.588189,0.542223,0.554562,0.686329,0.591656
-0.015450,-0.043384,-0.026286,-0.083928,-0.031881,-0.072400,-0.083091,0.004254,0.490413,0.546095,0.520278,0.582625,0.541614,0.555800,0.684979,0.590583
-0.020562,-0.040622,-0.024835,-0.086424,-0.032465,-0.073316,-0.081525,0.004872,0.495323,0.549680,0.520817,0.583561,0.541296,0.556878,0.684018,0.589611
-0.014397,-0.050564,-0.022398,-0.086612,-0.031325,-0.073209,-0.085065,0.004984,0.484057,0.548452,0.519934,0.581426,0.540838,0.559030,0.685975,0.590595
-0.018810,-0.048005,-0.024689,-0.088141,-0.030482,-0.074901,-0.084440,0.004443,0.487453,0.549016,0.520378,0.581048,0.539435,0.560524,0.685923,0.588565
-0.024784,-0.048431,-0.024591,-0.091068,-0.033172,-0.074597,-0.086535,0.006795,0.497544,0.551552,0.520200,0.586255,0.539606,0.561393,0.686958,0.588536
-0.003988,-0.047091,-0.026521,-0.088726,-0.032084,-0.074194,-0.085103,0.006333,0.487550,0.550745,0.518887,0.583725,0.539906,0.560282,0.687992,0.588103
-0.018777,-0.042590,-0.027678,-0.089878,-0.030521,-0.072799,-0.087125,0.005290,0.491339,0.554734,0.520908,0.581885,0.540982,0.562060,0.687195,0.587539
-0.009120,-0.045676,-0.026780,-0.089565,-0.032883,-0.074069,-0.086981,0.006498,0.490777,0.550747,0.518820,0.580030,0.540465,0.561844,0.684528,0.585734
-0.027175,-0.046352,-0.026195,-0.085096,-0.031522,-0.073910,-0.086576,0.006882,0.492511,0.551724,0.520230,0.578489,0.541571,0.564712,0.687042,0.587292
-0.014351,-0.042302,-0.023258,-0.084995,-0.031443,-0.075051,-0.088206,0.007024,0.491845,0.551273,0.518559,0.575943,0.540339,0.563503,0.688216,0.584524
-0.010830,-0.043895,-0.025899,-0.086001,-0.031591,-0.071595,-0.089582,0.005826,0.490675,0.552130,0.519527,0.576666,0.541960,0.563062,0.688848,0.584719
-0.010298,-0.040349,-0.026614,-0.084210,-0.033309,-0.072526,-0.089539,0.007873,0.491906,0.551701,0.520683,0.572185,0.543197,0.561367,0.687995,0.584914
-0.019993,-0.044329,-0.022559,-0.086313,-0.033300,-0.072186,-0.089581,0.007164,0.494678,0.553157,0.517944,0.573016,0.542579,0.563378,0.688011,0.585548
-0.007986,-0.045140,-0.022739,-0.086002,-0.035919,-0.072121,-0.089563,0.009080,0.493655,0.552261,0.519100,0.570939,0.545954,0.563530,0.686923,0.584102
-0.009561,-0.043540,-0.023745,-0.086675,-0.033219,-0.072756,-0.090793,0.009126,0.492122,0.556813,0.520091,0.574664,0.546071,0.562888,0.686284,0.583199
-0.007072,-0.046865,-0.024281,-0.083875,-0.033419,-0.073200,-0.090263,0.009527,0.498366,0.554666,0.518925,0.570041,0.545250,0.563756,0.687187,0.582887
-0.012514,-0.040803,-0.023513,-0.090098,-0.033627,-0.071200,-0.093645,0.009481,0.495467,0.549233,0.518895,0.575372,0.545149,0.562835,0.688089,0.580596
-0.018738,-0.044180,-0.023594,-0.089127,-0.034061,-0.067245,-0.093394,0.009002,0.499428,0.550944,0.518646,0.575251,0.547551,0.561144,0.685954,0.583047
-0.012541,-0.039222,-0.024568,-0.091218,-0.036177,-0.069088,-0.093400,0.010178,0.498968,0.553870,0.518797,0.580224,0.549011,0.562457,0.688173,0.582074
-0.014776,-0.041732,-0.027306,-0.090896,-0.035204,-0.070286,-0.095746,0.010875,0.489696,0.554310,0.520173,0.578943,0.548966,0.564038,0.686497,0.581060
-0.014498,-0.044292,-0.024928,-0.089651,-0.036059,-0.072644,-0.096147,0.010021,0.491432,0.553271,0.518985,0.578506,0.550325,0.564184,0.685382,0.581486
-0.019837,-0.038120,-0.024361,-0.088462,-0.037199,-0.073757,-0.094696,0.010334,0.499138,0.549970,0.517637,0.577394,0.549949,0.566348,0.685107,0.581996
-0.022346,-0.041777,-0.024637,-0.093382,-0.035095,-0.069164,-0.096651,0.009725,0.500103,0.550777,0.519426,0.576360,0.549300,0.563041,0.687979,0.581316
-0.019899,-0.045837,-0.023054,-0.086695,-0.036371,-0.071215,-0.097102,0.010589,0.492213,0.553859,0.519500,0.575887,0.550488,0.563625,0.687296,0.581216
-0.020312,-0.043940,-0.021850,-0.088971,-0.038016,-0.070149,-0.096801,0.009431,0.496170,0.555178,0.519687,0.569657,0.553096,0.563784,0.687612,0.580160
-0.017762,-0.036596,-0.025187,-0.093612,-0.038136,-0.068061,-0.097298,0.010120,0.500977,0.553310,0.519675,0.573797,0.556827,0.562890,0.687782,0.580851
-0.014518,-0.040453,-0.024424,-0.088241,-0.036624,-0.068199,-0.097683,0.010100,0.490848,0.553254,0.519613,0.571340,0.553913,0.563391,0.687230,0.579841
-0.016695,-0.045291,-0.022766,-0.090222,-0.035494,-0.069494,-0.098811,0.009959,0.502623,0.551989,0.520229,0.574678,0.553348,0.564555,0.686415,0.580125
-0.011349,-0.045229,-0.023309,-0.087810,-0.037302,-0.071649,-0.098610,0.010036,0.498258,0.553383,0.518726,0.572432,0.554541,0.567248,0.685819,0.579511
-0.012383,-0.044101,-0.022811,-0.087272,-0.037460,-0.070364,-0.098564,0.010162,0.495384,0.553099,0.516779,0.570103,0.555642,0.566038,0.687207,0.579648
-0.017287,-0.043513,-0.024667,-0.089242,-0.039412,-0.070583,-0.097942,0.010764,0.497120,0.554573,0.517718,0.570730,0.557365,0.564646,0.684440,0.577673
-0.011975,-0.040640,-0.026710,-0.088253,-0.039513,-0.073186,-0.098585,0.010496,0.498521,0.555492,0.518645,0.574688,0.557631,0.566779,0.687899,0.578381
-0.002579,-0.042498,-0.023473,-0.091072,-0.036716,-0.069872,-0.098756,0.010093,0.492442,0.553434,0.517321,0.574894,0.557317,0.566900,0.685989,0.579579
-0.015837,-0.038219,-0.023583,-0.090244,-0.038766,-0.071163,-0.100059,0.012346,0.492957,0.552824,0.518460,0.575803,0.556576,0.568057,0.687328,0.578551
-0.015293,-0.043897,-0.025673,-0.092299,-0.037073,-0.070966,-0.100025,0.011600,0.493131,0.553833,0.520217,0.583970,0.557492,0.565298,0.686671,0.578621
-0.017239,-0.046036,-0.024373,-0.092730,-0.038584,-0.071620,-0.100274,0.012052,0.491431,0.557171,0.520199,0.580464,0.558834,0.566724,0.686221,0.577360
-0.014146,-0.038629,-0.026769,-0.092748,-0.037692,-0.070147,-0.101649,0.011814,0.499887,0.557820,0.519273,0.578784,0.558357,0.567317,0.684056,0.579610
-0.019904,-0.043953,-0.023961,-0.091909,-0.039524,-0.071271,-0.102785,0.011638,0.490052,0.557131,0.517482,0.576914,0.560458,0.567566,0.683959,0.579965
-0.015216,-0.045115,-0.027482,-0.098726,-0.040675,-0.069869,-0.103024,0.013262,0.494588,0.556668,0.520101,0.584140,0.561575,0.566621,0.685703,0.576747
-0.009902,-0.039154,-0.027631,-0.092508,-0.039783,-0.069276,-0.103895,0.011018,0.480178,0.552743,0.520212,0.580424,0.561724,0.564409,0.687514,0.577770
-0.010593,-0.041188,-0.025385,-0.092750,-0.040339,-0.070969,-0.102533,0.011673,0.495334,0.554763,0.517431,0.582790,0.560811,0.565833,0.686649,0.576762
-0.015265,-0.041273,-0.023412,-0.089686,-0.039471,-0.071051,-0.103165,0.011633,0.499576,0.556743,0.515177,0.578062,0.560338,0.564565,0.685903,0.578626
-0.023000,-0.044348,-0.025332,-0.091808,-0.041040,-0.070487,-0.102700,0.012162,0.503807,0.558173,0.518059,0.578041,0.560732,0.565735,0.687084,0.578980
-0.020840,-0.042280,-0.025616,-0.094146,-0.041385,-0.071052,-0.103550,0.011869,0.494384,0.554319,0.519246,0.581359,0.562817,0.565592,0.686000,0.579755
-0.017870,-0.049690,-0.024991,-0.097337,-0.041475,-0.067758,-0.104418,0.012307,0.500547,0.557465,0.518828,0.584083,0.565775,0.565035,0.687217,0.578234
-0.021364,-0.040998,-0.023367,-0.094071,-0.040400,-0.068729,-0.105723,0.013032,0.496958,0.555404,0.518618,0.580743,0.564399,0.565503,0.687259,0.577587
-0.018888,-0.045930,-0.025145,-0.095266,-0.042155,-0.068438,-0.104900,0.011239,0.499211,0.554952,0.520274,0.581658,0.562737,0.566368,0.686687,0.578199
-0.006020,-0.044553,-0.024038,-0.093381,-0.040583,-0.069508,-0.105345,0.012802,0.494606,0.551587,0.519998,0.579916,0.562028,0.568572,0.687541,0.577458
-0.014110,-0.039718,-0.025841,-0.095670,-0.041423,-0.070725,-0.105874,0.012437,0.492360,0.552073,0.520781,0.580505,0.565722,0.567627,0.689151,0.578104
-0.010723,-0.037613,-0.023236,-0.094844,-0.042795,-0.069048,-0.105880,0.011762,0.498214,0.550770,0.519346,0.578185,0.568573,0.565702,0.686680,0.578657
-0.011042,-0.045771,-0.027061,-0.096469,-0.041865,-0.067429,-0.107176,0.011911,0.501818,0.554814,0.519495,0.580055,0.568466,0.566415,0.686404,0.577027
-0.017096,-0.042983,-0.024356,-0.095268,-0.044295,-0.070310,-0.106030,0.010764,0.493156,0.557970,0.518267,0.581518,0.572155,0.568559,0.685982,0.577966
-0.011406,-0.038435,-0.024778,-0.095859,-0.043390,-0.072417,-0.105566,0.012202,0.496629,0.553000,0.518641,0.581834,0.569004,0.568117,0.687335,0.576442
-0.018288,-0.045416,-0.023469,-0.094564,-0.042861,-0.070609,-0.106971,0.013266,0.496345,0.554746,0.516346,0.586421,0.567082,0.565390,0.686940,0.575516
-0.011023,-0.039735,-0.026136,-0.101582,-0.045395,-0.069374,-0.109536,0.013864,0.495826,0.553322,0.518570,0.589092,0.570480,0.566211,0.688009,0.574356
-0.013236,-0.042321,-0.024951,-0.098186,-0.043255,-0.071716,-0.109316,0.012923,0.497617,0.552827,0.518559,0.585401,0.571016,0.564506,0.688756,0.578319
-0.013655,-0.042556,-0.020936,-0.095812,-0.045533,-0.066282,-0.107704,0.012268,0.497741,0.555528,0.518352,0.587499,0.570284,0.563856,0.687955,0.577137
-0.016275,-0.041946,-0.025004,-0.099698,-0.042365,-0.066988,-0.110069,0.011723,0.502214,0.555566,0.517701,0.586915,0.573902,0.565490,0.687063,0.577385
-0.006445,-0.044394,-0.029348,-0.098475,-0.044403,-0.067341,-0.109429,0.011868,0.497457,0.556074,0.519474,0.590056,0.571649,0.567353,0.685599,0.576252
-0.014944,-0.046685,-0.026831,-0.100961,-0.043774,-0.070443,-0.107847,0.012835,0.488092,0.559359,0.519020,0.590568,0.571890,0.567260,0.685750,0.576619
-0.011430,-0.041522,-0.023615,-0.099180,-0.045046,-0.069952,-0.108037,0.013020,0.496399,0.556106,0.518295,0.591762,0.569643,0.570261,0.687094,0.577408
-0.019223,-0.042929,-0.024363,-0.098755,-0.044424,-0.068562,-0.108165,0.013364,0.491071,0.553323,0.519410,0.591523,0.570080,0.568413,0.686459,0.576169
-0.012122,-0.045075,-0.026189,-0.098872,-0.046133,-0.068771,-0.109211,0.013611,0.493161,0.556002,0.517887,0.589643,0.573641,0.569273,0.686481,0.576365
-0.020771,-0.046030,-0.025588,-0.103970,-0.047845,-0.068860,-0.109273,0.013306,0.502036,0.558196,0.517869,0.592430,0.578255,0.567886,0.686089,0.575776
-0.015368,-0.041054,-0.024367,-0.101894,-0.046011,-0.070269,-0.110222,0.013570,0.505472,0.552448,0.518340,0.592795,0.580671,0.569905,0.687909,0.575511
-0.017058,-0.043828,-0.025530,-0.102139,-0.047761,-0.069630,-0.108541,0.013580,0.503181,0.554029,0.519658,0.589494,0.577790,0.566844,0.689199,0.575745
-0.017532,-0.037938,-0.025147,-0.100603,-0.047054,-0.070630,-0.110595,0.015594,0.496415,0.550559,0.519915,0.585434,0.576586,0.569826,0.687513,0.573887
-0.011034,-0.042526,-0.023855,-0.100806,-0.046085,-0.070446,-0.111908,0.013942,0.498624,0.554563,0.520279,0.587855,0.575324,0.570654,0.687717,0.575065
-0.008572,-0.041376,-0.025736,-0.100859,-0.044733,-0.068748,-0.111831,0.013856,0.494981,0.554163,0.520206,0.590974,0.573998,0.568758,0.688889,0.574882
-0.019185,-0.039763,-0.029161,-0.106195,-0.045372,-0.068653,-0.110751,0.013577,0.492979,0.556371,0.520507,0.599023,0.575505,0.568675,0.687594,0.575022
-0.014730,-0.037978,-0.025883,-0.103198,-0.044242,-0.067721,-0.111419,0.015175,0.493266,0.551620,0.520652,0.593881,0.574825,0.570225,0.686393,0.574767
-0.005801,-0.038603,-0.026652,-0.105162,-0.047851,-0.070516,-0.110054,0.014725,0.503736,0.552466,0.519947,0.597587,0.573792,0.570192,0.687769,0.575438
-0.010018,-0.044293,-0.027346,-0.105771,-0.046537,-0.072117,-0.110155,0.012956,0.499946,0.554058,0.519588,0.595005,0.572306,0.574246,0.686168,0.577025
-0.012860,-0.041880,-0.025628,-0.103556,-0.047816,-0.069475,-0.111570,0.014101,0.499343,0.559143,0.519071,0.593560,0.579480,0.570401,0.688645,0.576020
-0.015161,-0.038875,-0.024947,-0.101942,-0.045981,-0.069384,-0.111290,0.014562,0.500264,0.556285,0.520074,0.595424,0.574379,0.570369,0.687268,0.576007
-0.012199,-0.039950,-0.025731,-0.101656,-0.049006,-0.069384,-0.111844,0.013769,0.502963,0.553403,0.520534,0.596968,0.580558,0.569996,0.689392,0.575669
-0.012486,-0.036024,-0.025952,-0.104593,-0.049150,-0.069751,-0.111440,0.014680,0.497902,0.553550,0.520371,0.598828,0.579489,0.570407,0.687655,0.573235
-0.018952,-0.038780,-0.024628,-0.106667,-0.047231,-0.069629,-0.111955,0.014299,0.503845,0.556287,0.520412,0.603986,0.579422,0.570990,0.686704,0.574908
-0.018083,-0.042557,-0.024184,-0.104408,-0.045774,-0.069954,-0.111534,0.014795,0.488779,0.555155,0.521742,0.597366,0.579249,0.571524,0.687762,0.574279
-0.007592,-0.041643,-0.025426,-0.106107,-0.046764,-0.067327,-0.113506,0.013745,0.499519,0.554573,0.521226,0.597075,0.579486,0.570568,0.688514,0.574973
-0.011679,-0.039595,-0.025486,-0.103042,-0.049204,-0.070292,-0.113942,0.014170,0.492696,0.553044,0.522958,0.593977,0.576418,0.572425,0.686971,0.575197
-0.021379,-0.043427,-0.025547,-0.100312,-0.046695,-0.069301,-0.113681,0.014072,0.495820,0.554165,0.521167,0.593350,0.576459,0.571390,0.690187,0.575508
-0.019074,-0.038247,-0.027987,-0.104303,-0.047323,-0.068363,-0.114600,0.014500,0.499036,0.551137,0.521771,0.596651,0.577280,0.570485,0.688345,0.575618
-0.018507,-0.042234,-0.027521,-0.103584,-0.047508,-0.070159,-0.114674,0.012952,0.496813,0.553288,0.521447,0.596174,0.578370,0.573907,0.688430,0.574898
-0.022042,-0.046272,-0.028337,-0.110407,-0.048618,-0.070234,-0.115414,0.014090,0.496491,0.551404,0.521648,0.600205,0.578060,0.573569,0.688444,0.574805
-0.009450,-0.037727,-0.024773,-0.107583,-0.046680,-0.067269,-0.114319,0.013660,0.496409,0.554026,0.521341,0.601644,0.576412,0.571393,0.688249,0.575213
-0.012749,-0.042348,-0.026102,-0.104322,-0.049445,-0.068531,-0.113429,0.013997,0.490226,0.552346,0.520778,0.597517,0.581160,0.569881,0.689292,0.576308
-0.016188,-0.044055,-0.025719,-0.104331,-0.050862,-0.068482,-0.113522,0.015302,0.502818,0.553011,0.521811,0.594505,0.578826,0.568611,0.688673,0.574951
-0.022580,-0.039435,-0.026678,-0.104474,-0.048185,-0.068691,-0.114628,0.015115,0.499970,0.554945,0.522089,0.602265,0.576411,0.571142,0.688155,0.574571
-0.016939,-0.043036,-0.030572,-0.109893,-0.045949,-0.068988,-0.114206,0.015001,0.494966,0.550492,0.523082,0.604274,0.574830,0.572074,0.687269,0.574012
-0.017752,-0.037796,-0.028944,-0.110113,-0.043422,-0.067402,-0.114703,0.013903,0.496035,0.553908,0.523110,0.604574,0.574940,0.571160,0.688644,0.574601
-0.018093,-0.043945,-0.030058,-0.108554,-0.046033,-0.069343,-0.115214,0.015113,0.495980,0.554251,0.523551,0.602273,0.575300,0.572046,0.687487,0.574183
-0.014078,-0.036957,-0.027398,-0.109116,-0.048060,-0.067298,-0.115008,0.014537,0.499140,0.553085,0.522173,0.600609,0.575578,0.571469,0.687046,0.572705
-0.014948,-0.042639,-0.028897,-0.107129,-0.047211,-0.069784,-0.114221,0.015046,0.498501,0.551065,0.522730,0.600332,0.576870,0.573654,0.687099,0.572710
-0.012080,-0.043891,-0.028101,-0.108093,-0.048211,-0.069150,-0.115187,0.014657,0.504324,0.555021,0.522498,0.598704,0.577412,0.574217,0.689176,0.574608
-0.020828,-0.043067,-0.026556,-0.107115,-0.048215,-0.070311,-0.113381,0.014026,0.504791,0.555590,0.523544,0.599018,0.573541,0.575527,0.687319,0.573977
-0.021191,-0.039912,-0.028585,-0.102208,-0.048206,-0.067922,-0.115874,0.012633,0.500729,0.554390,0.522119,0.597752,0.578805,0.573337,0.687904,0.575789
-0.010682,-0.046627,-0.025838,-0.110366,-0.047224,-0.072353,-0.114791,0.013889,0.498580,0.554065,0.523160,0.599719,0.575626,0.573676,0.689489,0.573763
-0.014372,-0.043557,-0.027738,-0.106494,-0.046492,-0.071136,-0.115888,0.014043,0.497237,0.557011,0.521274,0.598002,0.572090,0.574712,0.688520,0.573772
-0.015502,-0.037133,-0.024876,-0.109765,-0.047710,-0.067533,-0.116917,0.013916,0.499471,0.556148,0.521420,0.600308,0.576105,0.572556,0.687025,0.573010
-0.013382,-0.043555,-0.028116,-0.107687,-0.045684,-0.067586,-0.115285,0.014070,0.501852,0.556146,0.521772,0.599958,0.572730,0.573962,0.687973,0.573965
-0.009782,-0.042444,-0.025769,-0.107635,-0.045723,-0.066394,-0.118146,0.014006,0.497904,0.553625,0.522233,0.599268,0.574767,0.573046,0.688820,0.573942
-0.020935,-0.039228,-0.027044,-0.107029,-0.048019,-0.068151,-0.117450,0.014024,0.505244,0.551435,0.523907,0.598261,0.576301,0.574295,0.688931,0.573818
-0.018232,-0.036995,-0.028217,-0.108499,-0.048214,-0.069019,-0.117484,0.014830,0.499459,0.551749,0.522420,0.601695,0.578725,0.572315,0.688034,0.572572
-0.018921,-0.039332,-0.028870,-0.105193,-0.049512,-0.066516,-0.118550,0.015514,0.496670,0.552976,0.522356,0.600662,0.579554,0.572681,0.688210,0.572613
-0.011505,-0.039570,-0.026061,-0.107970,-0.047238,-0.070059,-0.118127,0.014494,0.490363,0.551027,0.522135,0.604286,0.577109,0.574993,0.689608,0.573869
-0.016333,-0.041054,-0.025591,-0.104714,-0.045370,-0.070001,-0.119307,0.014866,0.493005,0.553186,0.522128,0.599320,0.574138,0.575493,0.688502,0.575378
-0.007345,-0.038412,-0.029065,-0.104895,-0.045488,-0.070659,-0.118750,0.015832,0.496027,0.550941,0.524759,0.600421,0.572684,0.574261,0.688168,0.574969
0.001430,-0.048787,-0.026157,-0.105628,-0.045907,-0.068487,-0.118407,0.014217,0.494020,0.554280,0.523657,0.598692,0.571864,0.577909,0.688030,0.574995
-0.018678,-0.035632,-0.028700,-0.107971,-0.047928,-0.070458,-0.118539,0.014755,0.496978,0.554795,0.525169,0.603669,0.571959,0.576116,0.688651,0.573845
-0.012163,-0.038783,-0.030249,-0.111754,-0.047684,-0.068197,-0.118058,0.013332,0.498755,0.550610,0.524467,0.603307,0.573217,0.577150,0.688947,0.577054
-0.021263,-0.040988,-0.025857,-0.106085,-0.049147,-0.071358,-0.117409,0.015602,0.495874,0.553958,0.522223,0.601216,0.574784,0.579268,0.687813,0.574008
-0.013793,-0.040131,-0.024208,-0.110760,-0.050491,-0.071453,-0.118844,0.015756,0.506576,0.552661,0.522702,0.598932,0.575648,0.579322,0.690070,0.573648
-0.009851,-0.040467,-0.028033,-0.107195,-0.048530,-0.068707,-0.119179,0.015690,0.499838,0.551605,0.522778,0.602346,0.574599,0.575801,0.689153,0.575112
-0.006473,-0.041536,-0.025754,-0.111373,-0.048177,-0.067778,-0.119170,0.015027,0.496736,0.554074,0.522948,0.602222,0.576684,0.574647,0.688374,0.574936
-0.017413,-0.039922,-0.023848,-0.112002,-0.046128,-0.068254,-0.118319,0.014670,0.492019,0.552947,0.521785,0.599096,0.575892,0.574798,0.687464,0.575700
-0.023697,-0.040040,-0.028904,-0.107470,-0.051244,-0.069520,-0.119014,0.015363,0.497121,0.552009,0.523527,0.600795,0.577683,0.576451,0.686271,0.574769
-0.013745,-0.046670,-0.027011,-0.109578,-0.048895,-0.069455,-0.119564,0.014593,0.503316,0.556231,0.523323,0.603583,0.577236,0.573982,0.688340,0.572998
-0.012164,-0.036288,-0.025869,-0.107784,-0.049647,-0.067931,-0.118703,0.014969,0.502054,0.553999,0.522251,0.599069,0.575071,0.578304,0.688863,0.574655
-0.012379,-0.039601,-0.028738,-0.109970,-0.046838,-0.066658,-0.119047,0.016689,0.500655,0.555860,0.523580,0.600650,0.575010,0.575796,0.689103,0.573291
-0.015434,-0.039376,-0.027226,-0.107877,-0.049451,-0.066934,-0.118845,0.014459,0.505365,0.551161,0.523845,0.599572,0.575103,0.574862,0.688954,0.574549
-0.013618,-0.043185,-0.029406,-0.109098,-0.045540,-0.069496,-0.119194,0.014864,0.505136,0.551983,0.526556,0.606644,0.571637,0.576113,0.688366,0.574640
-0.013317,-0.041792,-0.027227,-0.109737,-0.047359,-0.070508,-0.118699,0.015356,0.498606,0.550538,0.526695,0.605725,0.574918,0.576391,0.687588,0.574303
-0.016013,-0.034742,-0.026172,-0.107400,-0.048276,-0.068347,-0.119873,0.014372,0.505482,0.552456,0.525468,0.601122,0.576585,0.575155,0.689431,0.574817
-0.015042,-0.041419,-0.027483,-0.108504,-0.050005,-0.069804,-0.119496,0.013792,0.504912,0.554697,0.524869,0.601370,0.577189,0.575957,0.687269,0.575763
-0.019620,-0.045280,-0.023372,-0.108094,-0.046389,-0.068185,-0.120615,0.014193,0.496778,0.554340,0.524026,0.602260,0.575097,0.575058,0.689125,0.575835
-0.018960,-0.044796,-0.024846,-0.106122,-0.048520,-0.069245,-0.118668,0.014667,0.503740,0.556752,0.525771,0.604407,0.575485,0.575526,0.686608,0.576669
-0.015025,-0.039290,-0.027781,-0.111145,-0.052197,-0.070634,-0.120589,0.014516,0.495555,0.555410,0.525086,0.605094,0.575216,0.578573,0.688127,0.575862
-0.008003,-0.037701,-0.028499,-0.106741,-0.047842,-0.070200,-0.120811,0.014308,0.496462,0.555271,0.524625,0.601224,0.571188,0.578122,0.687675,0.577910
-0.012998,-0.038257,-0.027575,-0.110570,-0.048039,-0.068711,-0.120634,0.012499,0.496664,0.556090,0.525003,0.604522,0.570607,0.577800,0.687709,0.577732
-0.007181,-0.037911,-0.027424,-0.111263,-0.046168,-0.066853,-0.121788,0.014537,0.494809,0.555670,0.526103,0.601126,0.571476,0.578560,0.688536,0.577121
-0.020960,-0.041579,-0.026810,-0.107137,-0.050315,-0.067881,-0.122275,0.014362,0.503513,0.556634,0.525258,0.601265,0.573357,0.577193,0.689502,0.574604
-0.013864,-0.039806,-0.027135,-0.109515,-0.048318,-0.065537,-0.122527,0.013970,0.500591,0.555470,0.522686,0.601546,0.570457,0.577483,0.688950,0.575261
-0.022122,-0.039923,-0.027147,-0.113886,-0.046505,-0.066431,-0.121868,0.014390,0.503536,0.555221,0.525708,0.604791,0.570338,0.579554,0.690015,0.574987
-0.014742,-0.039474,-0.027654,-0.108225,-0.047260,-0.065928,-0.122901,0.015069,0.506371,0.555461,0.523489,0.599384,0.571566,0.579222,0.689126,0.574728
-0.017593,-0.043502,-0.025974,-0.111729,-0.046714,-0.067728,-0.122608,0.014146,0.504376,0.557554,0.523401,0.603790,0.569083,0.579165,0.689331,0.575184
-0.022597,-0.043468,-0.024549,-0.110634,-0.047237,-0.069422,-0.122549,0.014131,0.503301,0.555924,0.524110,0.605392,0.568666,0.579393,0.688563,0.575865
-0.014587,-0.041976,-0.029140,-0.109246,-0.045784,-0.067500,-0.122893,0.014334,0.498654,0.556716,0.525253,0.603486,0.567500,0.579270,0.690550,0.575391
-0.011887,-0.040258,-0.028154,-0.111650,-0.048598,-0.068801,-0.122771,0.014369,0.504136,0.554643,0.526393,0.603650,0.569351,0.580325,0.689992,0.574876
-0.018845,-0.043199,-0.027012,-0.106622,-0.046854,-0.067370,-0.121624,0.013946,0.502831,0.554212,0.524813,0.596980,0.568559,0.576011,0.690062,0.575623
-0.016836,-0.044740,-0.026005,-0.108276,-0.048690,-0.071071,-0.123652,0.014943,0.500040,0.554467,0.524593,0.602530,0.571195,0.582075,0.690300,0.575412
-0.006210,-0.042961,-0.028016,-0.106427,-0.049622,-0.066198,-0.123305,0.012926,0.499254,0.552942,0.523997,0.601112,0.571942,0.578018,0.690266,0.576584
-0.019245,-0.042139,-0.025510,-0.113191,-0.048361,-0.070963,-0.123889,0.014736,0.505967,0.554154,0.523710,0.603998,0.571183,0.579890,0.690103,0.573121
-0.011248,-0.041698,-0.027096,-0.108697,-0.048774,-0.067223,-0.123973,0.014787,0.504317,0.553229,0.523104,0.602801,0.569358,0.581243,0.690252,0.574825
-0.013724,-0.039846,-0.024614,-0.111556,-0.046744,-0.070160,-0.124412,0.014414,0.502778,0.553627,0.524691,0.602041,0.573786,0.579420,0.688756,0.574482
-0.005634,-0.037187,-0.027139,-0.112025,-0.047392,-0.068685,-0.124197,0.014432,0.501650,0.551859,0.524137,0.603252,0.572200,0.577213,0.689807,0.574694
-0.010142,-0.043714,-0.026823,-0.110776,-0.048873,-0.070723,-0.125303,0.015182,0.497573,0.551585,0.524731,0.602854,0.571610,0.578265,0.689802,0.574779
-0.010266,-0.036377,-0.026304,-0.106428,-0.049495,-0.067047,-0.125203,0.013992,0.497632,0.552102,0.525171,0.595335,0.570945,0.577058,0.688368,0.575029
-0.018671,-0.039076,-0.029469,-0.111440,-0.047570,-0.069175,-0.124909,0.015116,0.506042,0.550891,0.526064,0.604187,0.572328,0.578366,0.689248,0.573343
-0.010205,-0.037717,-0.026816,-0.109979,-0.048535,-0.065120,-0.125756,0.014040,0.495510,0.550381,0.525533,0.600048,0.570052,0.579216,0.689588,0.574240
-0.010051,-0.041283,-0.025822,-0.108842,-0.048689,-0.071224,-0.127243,0.014621,0.501924,0.554192,0.525043,0.599691,0.569191,0.581798,0.690101,0.574267
-0.012731,-0.039560,-0.026475,-0.108918,-0.046799,-0.067861,-0.125608,0.014569,0.501200,0.552390,0.524433,0.601549,0.567982,0.579717,0.688620,0.574440
-0.016647,-0.039307,-0.024512,-0.108337,-0.046742,-0.067129,-0.127200,0.014929,0.501911,0.552059,0.524151,0.604214,0.569616,0.576797,0.688770,0.574487
-0.003453,-0.038204,-0.026252,-0.106644,-0.047473,-0.068157,-0.125705,0.014428,0.494262,0.553216,0.523334,0.598283,0.569171,0.579965,0.688739,0.575112
-0.006927,-0.039336,-0.023368,-0.105138,-0.047238,-0.067618,-0.126499,0.015016,0.501026,0.555946,0.522297,0.597129,0.569456,0.577779,0.688748,0.574684
-0.015225,-0.042306,-0.027374,-0.109435,-0.048916,-0.069345,-0.125412,0.016025,0.497377,0.556745,0.523602,0.600961,0.569656,0.578474,0.689204,0.574340
-0.010968,-0.040265,-0.030959,-0.108216,-0.048156,-0.068723,-0.125560,0.014417,0.500707,0.556045,0.526505,0.603731,0.567789,0.579024,0.690238,0.575410
-0.017010,-0.046013,-0.027112,-0.107957,-0.047810,-0.066081,-0.125648,0.014546,0.500800,0.554976,0.527274,0.601539,0.569778,0.578692,0.689321,0.576252
-0.009358,-0.038061,-0.024658,-0.106865,-0.047467,-0.067400,-0.124107,0.013779,0.509307,0.555762,0.524905,0.596958,0.571146,0.578990,0.688091,0.576283
-0.015438,-0.038204,-0.028259,-0.107918,-0.047173,-0.065090,-0.126278,0.014937,0.493834,0.552289,0.527427,0.598056,0.570457,0.576757,0.689130,0.574833
-0.012117,-0.041575,-0.027010,-0.106261,-0.047885,-0.067321,-0.126011,0.015506,0.495589,0.553506,0.524778,0.600470,0.570059,0.578451,0.688630,0.574656
-0.017393,-0.041400,-0.032332,-0.107898,-0.045486,-0.067807,-0.125888,0.015206,0.502690,0.553369,0.524301,0.604074,0.570295,0.574912,0.688253,0.575605
-0.010917,-0.038667,-0.026649,-0.109335,-0.048232,-0.066714,-0.126345,0.015164,0.494371,0.552832,0.522058,0.602350,0.570528,0.577145,0.689331,0.574831
-0.017824,-0.039475,-0.027112,-0.108552,-0.045899,-0.068978,-0.125931,0.015087,0.496039,0.553269,0.524574,0.599876,0.567042,0.583718,0.687991,0.574803
-0.017119,-0.040826,-0.025034,-0.107251,-0.045777,-0.065739,-0.125667,0.016278,0.498192,0.555199,0.523005,0.597857,0.568568,0.579901,0.688785,0.576505
-0.011581,-0.044869,-0.030429,-0.106387,-0.049171,-0.069129,-0.125522,0.015969,0.494191,0.553538,0.524486,0.602844,0.569125,0.580597,0.687006,0.574722
-0.007188,-0.038659,-0.028579,-0.112739,-0.049284,-0.064770,-0.124771,0.015102,0.497569,0.553980,0.523876,0.603099,0.569226,0.579574,0.689575,0.575135
-0.013223,-0.039032,-0.028348,-0.115165,-0.048247,-0.067960,-0.125852,0.013659,0.500596,0.553568,0.523077,0.606345,0.566873,0.579336,0.688154,0.574433
-0.013232,-0.040964,-0.024574,-0.111372,-0.048639,-0.068281,-0.125551,0.015622,0.499410,0.557082,0.522933,0.604005,0.569003,0.581625,0.688685,0.573576
-0.008454,-0.041027,-0.027333,-0.112053,-0.047473,-0.067490,-0.127231,0.015577,0.504328,0.555661,0.524249,0.609303,0.567696,0.582612,0.689462,0.574188
-0.010947,-0.035430,-0.028433,-0.112042,-0.046711,-0.069554,-0.125982,0.014128,0.498536,0.554069,0.524582,0.607543,0.569532,0.583384,0.687778,0.573793
-0.009768,-0.045124,-0.028291,-0.108937,-0.048314,-0.066451,-0.127569,0.015275,0.501221,0.553916,0.526164,0.602393,0.568420,0.580318,0.689478,0.573969
-0.016617,-0.040330,-0.027691,-0.107964,-0.047992,-0.066140,-0.126653,0.015703,0.494610,0.552787,0.526451,0.598811,0.566046,0.578592,0.688792,0.574749
-0.016367,-0.043300,-0.025742,-0.107815,-0.045827,-0.064482,-0.128207,0.014843,0.500032,0.555283,0.525636,0.596333,0.567875,0.578652,0.689859,0.575054
-0.003828,-0.045328,-0.028394,-0.106679,-0.046798,-0.065750,-0.126362,0.014943,0.499102,0.555235,0.526379,0.601197,0.565564,0.579073,0.689020,0.575067
-0.011954,-0.037128,-0.028098,-0.106027,-0.045977,-0.065325,-0.127911,0.014226,0.499381,0.551198,0.525456,0.602747,0.564333,0.581836,0.688663,0.575220
-0.013819,-0.028316,-0.024924,-0.104011,-0.044064,-0.066869,-0.127737,0.014072,0.534618,0.555770,0.531225,0.603965,0.566471,0.583455,0.688373,0.576301
-0.013334,-0.024781,-0.022793,-0.102685,-0.042293,-0.066455,-0.127892,0.013699,0.547852,0.559090,0.535082,0.604382,0.568082,0.584821,0.688171,0.578109
-0.011369,-0.024135,-0.021479,-0.101788,-0.042041,-0.065923,-0.127911,0.013684,0.555865,0.560916,0.538101,0.604773,0.569238,0.585904,0.688051,0.579234
-0.012522,-0.023801,-0.022427,-0.100253,-0.041205,-0.064583,-0.128030,0.013350,0.565119,0.562262,0.541154,0.605216,0.570456,0.586848,0.688019,0.580548
-0.013006,-0.021926,-0.021137,-0.098262,-0.040105,-0.063973,-0.127994,0.012960,0.569702,0.563735,0.543739,0.605556,0.571706,0.587812,0.687966,0.581430
-0.017274,-0.020883,-0.021088,-0.097365,-0.039690,-0.064117,-0.128044,0.013429,0.577022,0.564744,0.545783,0.605676,0.572708,0.588608,0.687861,0.582131
-0.012942,-0.020870,-0.020296,-0.096424,-0.038843,-0.062746,-0.128097,0.013758,0.578594,0.565900,0.547423,0.605956,0.573634,0.589193,0.687833,0.582993
-0.012999,-0.020592,-0.020024,-0.096206,-0.038838,-0.062911,-0.128247,0.013292,0.578467,0.566524,0.549215,0.605992,0.574294,0.589664,0.687791,0.583893
-0.010119,-0.020015,-0.019670,-0.095363,-0.038296,-0.061746,-0.128270,0.013397,0.581914,0.567669,0.550766,0.606038,0.574960,0.590285,0.687822,0.584411
-0.010777,-0.020380,-0.021156,-0.094742,-0.037481,-0.061334,-0.128256,0.013370,0.582208,0.568384,0.552131,0.606092,0.575428,0.590854,0.687774,0.584746
-0.013243,-0.017593,-0.019935,-0.093173,-0.037438,-0.059980,-0.128291,0.012659,0.585517,0.568695,0.553076,0.606264,0.575951,0.591500,0.687829,0.586485
-0.010524,-0.017604,-0.018979,-0.093464,-0.036558,-0.059766,-0.128255,0.013052,0.589433,0.569263,0.553884,0.606100,0.576239,0.592160,0.687832,0.586527
-0.011973,-0.016508,-0.019344,-0.092438,-0.036305,-0.059192,-0.128375,0.013360,0.591080,0.569433,0.555001,0.606382,0.576706,0.592876,0.687793,0.586693
-0.012144,-0.016668,-0.018945,-0.092026,-0.036199,-0.058956,-0.128822,0.012617,0.595247,0.569827,0.555702,0.606551,0.577157,0.593317,0.687666,0.587540
-0.014046,-0.018135,-0.018774,-0.091032,-0.036254,-0.058156,-0.128810,0.012700,0.597934,0.570568,0.556582,0.606461,0.577487,0.593713,0.687638,0.588112
-0.012096,-0.016121,-0.018758,-0.090867,-0.035410,-0.058537,-0.129018,0.012768,0.599507,0.570989,0.557269,0.606483,0.577953,0.594232,0.687724,0.588763
-0.013389,-0.016237,-0.017382,-0.090432,-0.035422,-0.058563,-0.128769,0.012802,0.598307,0.571453,0.557813,0.606502,0.578379,0.594481,0.687733,0.589182
-0.013394,-0.016647,-0.017100,-0.090364,-0.034981,-0.057170,-0.128904,0.012240,0.596625,0.571754,0.558685,0.606627,0.578679,0.595078,0.687774,0.589679
-0.014239,-0.015497,-0.017800,-0.089390,-0.034720,-0.056176,-0.129065,0.012104,0.599457,0.571603,0.559223,0.606600,0.579078,0.595525,0.687769,0.590055
-0.013641,-0.015894,-0.017726,-0.088723,-0.034807,-0.055875,-0.129115,0.011733,0.596666,0.571838,0.559952,0.606727,0.579374,0.595907,0.687837,0.590369
-0.013029,-0.015058,-0.017245,-0.088895,-0.034259,-0.055982,-0.129272,0.012318,0.599834,0.571761,0.560568,0.606801,0.579675,0.596150,0.687806,0.590629
-0.010264,-0.015958,-0.017601,-0.088101,-0.034073,-0.055529,-0.129081,0.012102,0.600179,0.572314,0.561097,0.606821,0.580090,0.596506,0.687863,0.591211
-0.014851,-0.015841,-0.017843,-0.087686,-0.033759,-0.055523,-0.129110,0.011916,0.600216,0.572217,0.561863,0.606719,0.580409,0.596811,0.687972,0.591637
-0.009981,-0.014636,-0.017087,-0.086856,-0.033625,-0.055211,-0.129056,0.012086,0.598331,0.572054,0.562389,0.606956,0.580582,0.597362,0.688011,0.591539
-0.015119,-0.013714,-0.016695,-0.085729,-0.033303,-0.055140,-0.129113,0.012140,0.600431,0.572544,0.562988,0.606998,0.580834,0.597403,0.687930,0.592006
-0.012271,-0.013436,-0.016123,-0.085765,-0.033044,-0.054739,-0.128911,0.011843,0.595480,0.573058,0.563157,0.607068,0.580872,0.597668,0.687951,0.592698
-0.014874,-0.014055,-0.016738,-0.086092,-0.032722,-0.054264,-0.128960,0.011688,0.599059,0.573545,0.563697,0.606914,0.580961,0.597723,0.687991,0.592636
-0.013504,-0.014364,-0.016295,-0.085744,-0.033087,-0.053921,-0.129029,0.011971,0.601153,0.573848,0.563784,0.607080,0.580988,0.598155,0.687889,0.593436
-0.010871,-0.013533,-0.016553,-0.084909,-0.033090,-0.053916,-0.129006,0.012119,0.599825,0.574010,0.564325,0.607027,0.581102,0.598438,0.687904,0.593009
-0.011352,-0.013162,-0.016572,-0.084417,-0.032709,-0.053387,-0.128940,0.011945,0.600308,0.574066,0.564816,0.607198,0.581146,0.598523,0.688005,0.593679
-0.013970,-0.013545,-0.016369,-0.083983,-0.032152,-0.053460,-0.129014,0.011873,0.602302,0.574189,0.564863,0.607149,0.581145,0.598940,0.688013,0.594303
-0.011966,-0.013230,-0.016061,-0.083392,-0.031915,-0.053441,-0.128985,0.011779,0.604247,0.574272,0.565028,0.607335,0.581245,0.598966,0.688034,0.594949
-0.013785,-0.014127,-0.016376,-0.083274,-0.032221,-0.053383,-0.129150,0.011250,0.604674,0.575029,0.565413,0.607244,0.581783,0.599178,0.688212,0.594912
-0.012838,-0.013155,-0.015588,-0.083228,-0.032229,-0.053271,-0.128954,0.011769,0.606690,0.575178,0.565331,0.607184,0.581851,0.599661,0.688261,0.595099
-0.010840,-0.012950,-0.016167,-0.083082,-0.031945,-0.052460,-0.129053,0.010772,0.606405,0.575415,0.565660,0.607347,0.582010,0.600017,0.688306,0.595522
-0.013776,-0.013546,-0.016078,-0.083114,-0.031877,-0.052162,-0.129067,0.011340,0.603823,0.575951,0.565766,0.607363,0.582093,0.599931,0.688336,0.595553
-0.010698,-0.012976,-0.016243,-0.083002,-0.031583,-0.051207,-0.129235,0.011458,0.600294,0.576403,0.566065,0.607315,0.582360,0.599897,0.688379,0.595859
-0.011163,-0.013176,-0.015492,-0.082030,-0.031429,-0.051554,-0.129183,0.011263,0.599935,0.576891,0.565936,0.607521,0.582463,0.600152,0.688329,0.596625
-0.011101,-0.012740,-0.016682,-0.082245,-0.031818,-0.051317,-0.129302,0.011552,0.602791,0.576512,0.566498,0.607752,0.582535,0.600443,0.688415,0.596590
-0.014002,-0.010927,-0.015583,-0.081563,-0.031094,-0.051345,-0.129347,0.010982,0.601324,0.576345,0.566653,0.607924,0.582622,0.600324,0.688479,0.597465
-0.013053,-0.010533,-0.015810,-0.081663,-0.030737,-0.051214,-0.129502,0.010383,0.601330,0.576684,0.566721,0.608087,0.582919,0.600469,0.688447,0.597669
-0.010211,-0.009399,-0.014893,-0.081573,-0.031020,-0.051024,-0.129805,0.011014,0.603507,0.576420,0.566613,0.608172,0.583009,0.600517,0.688466,0.597117
-0.012154,-0.009590,-0.014078,-0.080554,-0.030348,-0.050262,-0.129771,0.011222,0.604624,0.576574,0.566610,0.608136,0.583208,0.600437,0.688399,0.597749
-0.010399,-0.010476,-0.015318,-0.081050,-0.030654,-0.050106,-0.129658,0.010804,0.606811,0.576978,0.566698,0.608077,0.583374,0.600658,0.688409,0.598719
-0.009317,-0.009279,-0.014900,-0.080418,-0.030710,-0.049951,-0.129763,0.010682,0.605144,0.576960,0.566575,0.608007,0.583607,0.600729,0.688345,0.598614
-0.011262,-0.009410,-0.016199,-0.079743,-0.030057,-0.050331,-0.129532,0.010833,0.603488,0.577306,0.566592,0.608127,0.583781,0.600654,0.688335,0.598489
-0.010601,-0.009621,-0.015339,-0.079917,-0.029920,-0.050798,-0.129484,0.010522,0.603074,0.577690,0.566637,0.608128,0.583859,0.601083,0.688350,0.599038
-0.009922,-0.008889,-0.015555,-0.080275,-0.030123,-0.050618,-0.129406,0.010252,0.603187,0.577927,0.566605,0.608148,0.584080,0.600940,0.688416,0.600065
-0.013548,-0.009459,-0.015046,-0.078772,-0.029970,-0.050980,-0.129508,0.010578,0.604876,0.578262,0.566872,0.608231,0.584270,0.601014,0.688394,0.599195
-0.014502,-0.009604,-0.013887,-0.079186,-0.029718,-0.050941,-0.129579,0.009814,0.606448,0.578133,0.567059,0.608221,0.584270,0.601057,0.688378,0.599661
-0.014502,-0.009605,-0.013886,-0.079186,-0.029718,-0.050941,-0.129579,0.009814,0.606448,0.578133,0.567059,0.608220,0.584270,0.601057,0.688378,0.599661
-0.014502,-0.009604,-0.013887,-0.079186,-0.029718,-0.050941,-0.129579,0.009814,0.606448,0.578133,0.567060,0.608221,0.584270,0.601057,0.688378,0.599661
-0.014502,-0.009606,-0.013887,-0.079185,-0.029718,-0.050941,-0.129579,0.009814,0.606448,0.578131,0.567060,0.608221,0.584270,0.601057,0.688378,0.599661
-0.014502,-0.009607,-0.013889,-0.079186,-0.029718,-0.050941,-0.129579,0.009814,0.606448,0.578132,0.567061,0.608221,0.584270,0.601058,0.688378,0.599661
-0.014502,-0.009607,-0.013889,-0.079186,-0.029718,-0.050941,-0.129579,0.009814,0.606448,0.578133,0.567061,0.608221,0.584271,0.601058,0.688378,0.599661
-0.014502,-0.009607,-0.013889,-0.079185,-0.029719,-0.050941,-0.129580,0.009814,0.606448,0.578133,0.567061,0.608221,0.584271,0.601058,0.688378,0.599661
-0.014502,-0.009608,-0.013890,-0.079185,-0.029719,-0.050941,-0.129580,0.009809,0.606448,0.578133,0.567062,0.608221,0.584271,0.601058,0.688378,0.599663
